Potential,Flux
10.0,0.010581729200250118
9.986662220740246,0.009414954258868374
9.973324441480493,0.008444067438548832
9.95998666222074,0.0076481250594252845
9.946648882960988,0.007006183441631517
9.933311103701234,0.006497298905301319
9.91997332444148,0.0061005277705684785
9.906635545181727,0.005794926357566784
9.893297765921973,0.005559550986430025
9.87995998666222,0.005373457977291989
9.866622207402468,0.0052157036502864015
9.853284428142715,0.005861465807339559
9.839946648882961,0.005142355695333569
9.826608869623207,0.004417747638659994
9.813271090363454,0.00438257311038953
9.7999333111037,0.005269371423439343
9.786595531843949,0.0045961194257053035
9.773257752584195,0.0023506965384386047
9.759919973324442,0.0009488379485004554
9.746582194064688,-0.0016510793483123553
9.733244414804934,-0.0007183604437577917
9.719906635545183,0.0006341413240398659
9.706568856285429,0.001823765587508367
9.693231077025676,0.0024483480394926656
9.679893297765922,0.0003350015521961972
9.666555518506168,0.001409418271157608
9.653217739246415,0.0024244194029367006
9.639879959986661,-0.0008926086654452567
9.62654218072691,-0.003121350103739437
9.613204401467156,-0.004037700054903142
9.599866622207403,-0.0027661059647405054
9.586528842947649,-0.0024055513296838194
9.573191063687895,-0.0040438853135662195
9.559853284428142,-0.004826284602567739
9.54651550516839,-0.0057807455368278525
9.533177725908637,-0.005772373666604849
9.519839946648883,-0.007008480861779968
9.50650216738913,-0.00929001542484883
9.493164388129376,-0.009764528137582456
9.479826608869622,-0.009222290421395149
9.46648882960987,-0.008387410478106998
9.453151050350117,-0.006584262200183569
9.439813271090364,-0.007493802139888768
9.42647549183061,-0.004872267765581153
9.413137712570856,-0.005585067706049633
9.399799933311105,-0.0031518390356272555
9.386462154051351,-0.0020701124818505
9.373124374791598,-0.0024217329232320063
9.359786595531844,-0.002536065753646501
9.34644881627209,-0.0006131490740599844
9.333111037012337,0.0012019323682296362
9.319773257752583,0.00202931511876736
9.306435478492832,0.0002642153639472061
9.293097699233078,0.0018048978365668507
9.279759919973325,0.0012770922629608684
9.266422140713571,0.0010145015145085808
9.253084361453817,0.0008633071928405671
9.239746582194064,0.0010093159103322512
9.226408802934312,0.0021047873099440226
9.213071023674559,0.0008160119967116181
9.199733244414805,-0.0016510167803524779
9.186395465155051,-0.0009139133331238433
9.173057685895298,-0.001037305419940803
9.159719906635544,-1.099601334755341e-05
9.146382127375793,-0.0011421419537187122
9.133044348116039,0.002630405840085049
9.119706568856286,0.003018325431538251
9.106368789596532,0.0016630747045482414
9.093031010336778,0.002736616738520885
9.079693231077025,0.0035478179456976417
9.066355451817273,0.00579105409289659
9.05301767255752,0.006122432041256485
9.039679893297766,0.006718712385844657
9.026342114038012,0.008219784473342685
9.013004334778259,0.008661809159588162
8.999666555518505,0.0092604636422338
8.986328776258754,0.010417287482822416
8.972990996999,0.010506879484756553
8.959653217739247,0.009003808109810827
8.946315438479493,0.009117453746270047
8.93297765921974,0.005724453650034758
8.919639879959988,0.006097753678701343
8.906302100700234,0.006288308481136082
8.89296432144048,0.006510351719783324
8.879626542180727,0.007039531749816112
8.866288762920973,0.008820063387626764
8.85295098366122,0.007547469711022687
8.839613204401466,0.005851032163887576
8.826275425141715,0.006169789702344962
8.812937645881961,0.004281672768407365
8.799599866622208,0.004679901084900875
8.786262087362454,0.003582742742647334
8.7729243081027,0.0026455879575275646
8.759586528842949,0.002023129722786339
8.746248749583195,0.0027419274010384693
8.732910970323442,0.0014680216553029856
8.719573191063688,0.0014498408333757926
8.706235411803934,-0.00033906268182202744
8.692897632544181,-0.0004693271848608999
8.679559853284427,-0.0001515691978090435
8.666222074024676,-0.003415741761746525
8.652884294764922,-0.0015186905452904739
8.639546515505169,-0.0022112479633100324
8.626208736245415,-0.0022915308578803067
8.612870956985661,-0.004961422387306757
8.599533177725908,-0.005702899234347555
8.586195398466156,-0.007526165101275849
8.572857619206403,-0.007527039782287696
8.559519839946649,-0.007803875326612942
8.546182060686895,-0.007791754759599848
8.532844281427142,-0.007728090716296179
8.519506502167388,-0.0077941914067102425
8.506168722907637,-0.009006744756161669
8.492830943647883,-0.007155926575144385
8.47949316438813,-0.006089132085644202
8.466155385128376,-0.005203708255375433
8.452817605868622,-0.0035470060493593223
8.439479826608869,-0.0040195194218606645
8.426142047349117,-0.0012271105449509312
8.412804268089364,-0.00386526375104014
8.39946648882961,-0.003437608749142977
8.386128709569856,-0.00437295164965699
8.372790930310103,-0.006510414276292906
8.35945315105035,-0.006246011609811598
8.346115371790598,-0.006224894383421694
8.332777592530844,-0.006342850902310501
8.31943981327109,-0.005083439813275562
8.306102034011337,-0.003000519579861448
8.292764254751583,-0.004595182176709797
8.27942647549183,-0.003268233466750375
8.266088696232078,-0.0039892179258146695
8.252750916972325,-0.002663143931717476
8.239413137712571,-0.0030233862452589107
8.226075358452817,-0.0002781475363110448
8.212737579193064,0.0006181472435361909
8.19939979993331,0.0029802771209005503
8.186062020673559,0.001412292248636581
8.172724241413805,0.001526250319715448
8.159386462154052,0.0007335423087038843
8.146048682894298,-0.0026056026618997553
8.132710903634544,-0.0007500361740130001
8.11937312437479,-0.0013426928248750406
8.106035345115039,-0.0007629689019771223
8.092697565855286,0.0013253868412050522
8.079359786595532,0.0008398157249551934
8.066022007335778,0.00027208734065591956
8.052684228076025,0.002093104032483742
8.039346448816271,0.0007883970807732975
8.02600866955652,0.0016348977122691499
8.012670890296766,0.004125167842557869
7.9993331110370125,0.0038504564527821056
7.985995331777259,0.0036427829772271623
7.972657552517505,0.005700087625073811
7.959319773257753,0.005304108473381692
7.945981993997999,0.007186977371801733
7.9326442147382465,0.0060314655793277305
7.919306435478493,0.00320263263779738
7.9059686562187395,0.0032572999867168675
7.892630876958986,0.002741115145497611
7.879293097699233,0.001699748748894966
7.86595531843948,0.0005577319326277891
7.852617539179727,-0.0010914105527326497
7.8392797599199735,-0.0010718552712484898
7.82594198066022,0.0002076109854685041
7.812604201400466,-0.0014993227068931733
7.799266422140714,8.515612794797543e-05
7.78592864288096,-0.0007437884545195416
7.7725908636212075,-0.0009753906562966957
7.759253084361454,0.0021525821512723125
7.7459153051017005,0.0009500251746342152
7.732577525841947,-0.0007298559980151676
7.719239746582194,-0.0007338544806231673
7.705901967322441,0.0020376870498619894
7.692564188062688,-0.0016728836049520548
7.6792264088029345,0.0010031306155676755
7.665888629543181,-0.00031257227201647803
7.652550850283427,-2.942666109020638e-05
7.639213071023675,-0.0008919839922453315
7.625875291763921,0.0005259311846425388
7.6125375125041685,-0.00034468566466559466
7.599199733244415,-0.0014386577074872555
7.5858619539846615,-0.0014057322987069687
7.572524174724908,-7.572222077126267e-05
7.559186395465155,-6.897468888604052e-05
7.545848616205402,-0.000820572808594463
7.532510836945649,1.4369171144742662e-06
7.5191730576858955,-0.0011039683030063044
7.505835278426142,-0.00036480307351975053
7.492497499166388,0.002325643424658663
7.479159719906636,0.0018426338748061735
7.465821940646882,0.0013750561053148859
7.4524841613871295,0.0030695569198944685
7.439146382127376,0.00587158727004311
7.4258086028676225,0.005962116431030596
7.412470823607869,0.008053408523769238
7.399133044348115,0.009105895757817195
7.385795265088363,0.008781327787197606
7.37245748582861,0.010096780670670848
7.3591197065688565,0.012683327871803101
7.345781927309103,0.013366326255555337
7.332444148049349,0.01211747382924847
7.319106368789596,0.010428970870471
7.305768589529843,0.00987261329031349
7.2924308102700905,0.009105145980546181
7.279093031010337,0.008403404456133603
7.2657552517505835,0.002996396235446299
7.25241747249083,-0.0002955786034587125
7.239079693231076,0.0003064495957034513
7.225741913971324,0.0004941929459004965
7.212404134711571,-0.002128778268594813
7.1990663554518175,-0.004580999957773331
7.185728576192064,-0.004019331812975211
7.17239079693231,-0.003795414232354986
7.159053017672557,-0.005510844796400489
7.145715238412804,-0.007507234384867891
7.1323774591530515,-0.006281186035933233
7.119039679893298,-0.006012597486984679
7.1057019006335445,-0.0038229666304492914
7.092364121373791,-0.0013368199712568277
7.079026342114037,0.0003185077815149661
7.065688562854285,0.001033744309606523
7.052350783594532,0.002772916116713714
7.0390130043347785,0.0028935590779688766
7.025675225075025,0.004257806412868824
7.012337445815271,0.0023179584252090227
6.998999666555518,-0.0006442004925203363
6.985661887295765,0.0011388926189721466
6.9723241080360125,0.0023107109806384694
6.958986328776259,0.0016363968994597558
6.9456485495165055,0.0006475737114507935
6.932310770256752,-0.002085794439437599
6.918972990996998,-0.003319652340518583
6.905635211737246,-0.00569215331728414
6.892297432477493,-0.009130636627803099
6.8789596532177395,-0.00800686308121152
6.865621873957986,-0.0070179148543891255
6.852284094698232,-0.008334304906220572
6.838946315438479,-0.006866095761230348
6.825608536178726,-0.004377200074129474
6.8122707569189735,-0.003680581640696879
6.79893297765922,-0.0023358894803989644
6.7855951983994665,-0.0019738978060326257
6.772257419139713,-0.004028078606443874
6.758919639879959,-0.0027470505260030515
6.745581860620207,-0.002480648638939599
6.732244081360454,-0.00037404969354201044
6.7189063021007005,0.002564555349445455
6.705568522840947,0.0020584917797140632
6.692230743581193,0.00214927080116284
6.67889296432144,0.00042271927362837127
6.665555185061687,-0.00025634307266214455
6.6522174058019345,-0.0014848905244807962
6.638879626542181,-0.0012674081673362996
6.6255418472824275,-0.0003847957882110978
6.612204068022674,0.0004698268272297798
6.59886628876292,-0.0005037520391413695
6.585528509503168,-0.0019524683698760906
6.572190730243415,-0.0012750303995376073
6.5588529509836615,-0.0011818147119643776
6.545515171723908,-0.0024329163046519853
6.532177392464154,-0.004429993099333661
6.518839613204401,-0.006230704719723928
6.505501833944648,-0.005010529207695854
6.4921640546848955,-0.004624983749476438
6.478826275425142,-0.004663344555762397
6.4654884961653885,-0.005368897185567438
6.452150716905635,-0.00607688636977209
6.438812937645881,-0.009231911695778498
6.425475158386129,-0.009262088122275552
6.412137379126376,-0.00828944649252674
6.3987995998666225,-0.007424764976138951
6.385461820606869,-0.0073431701176353914
6.372124041347115,-0.007114754299166995
6.358786262087362,-0.007362475560949949
6.345448482827609,-0.00870679286474883
6.3321107035678565,-0.006976367737282832
6.318772924308103,-0.006311862447970339
6.3054351450483495,-0.004847276908804877
6.292097365788596,-0.0026224089335857193
6.278759586528842,-0.002592857333176463
6.26542180726909,-0.0025638055026068656
6.252084028009337,-0.0008505615757381786
6.2387462487495835,0.0030923609956682993
6.22540846948983,0.0011887497917587699
6.212070690230076,0.0011856884397139554
6.198732910970323,0.0020100097470326208
6.18539513171057,0.002703379316593701
6.1720573524508175,0.0018629388942773596
6.158719573191064,0.0056786582556306
6.1453817939313105,0.005319103175675695
6.132044014671557,0.006970057538877323
6.118706235411803,0.007525977648746183
6.105368456152051,0.007307308187387194
6.092030676892298,0.007868601451277686
6.0786928976325445,0.009047792045701105
6.065355118372791,0.010169691282439521
6.052017339113037,0.009660816233616705
6.038679559853284,0.00918923997171783
6.025341780593531,0.008275888929412577
6.0120040013337785,0.005976860762323706
5.998666222074025,0.004514212084859047
5.9853284428142715,0.003930114753752717
5.971990663554518,0.001796088400371244
5.958652884294765,2.1679531070635093e-05
5.945315105035012,-7.678425861454771e-05
5.931977325775258,-0.0005153727179681044
5.9186395465155055,-0.0019194180293595417
5.905301767255752,-0.0049153143981167415
5.891963987995998,-0.0035523164985217584
5.878626208736246,-0.0059843581301062265
5.865288429476492,-0.0035803686811313232
5.851950650216739,-0.005189713365270221
5.838612870956986,-0.004416748059858428
5.8252750916972325,-0.005401197979650399
5.811937312437479,-0.005784931630561891
5.798599533177726,-0.004808603771694054
5.785261753917973,-0.005263373748796447
5.771923974658219,-0.004544575983266123
5.7585861953984665,-0.004701080824163641
5.745248416138713,-0.0036466567202517296
5.731910636878959,-0.005468985377977511
5.718572857619207,-0.005059948568906465
5.705235078359453,-0.006794996893723987
5.6918972990997,-0.006606628786711779
5.678559519839947,-0.0077439598451599576
5.6652217405801935,-0.008548850822900755
5.65188396132044,-0.009238346813585152
5.638546182060687,-0.010034366055103624
5.625208402800934,-0.008113511155510653
5.61187062354118,-0.008297943229361547
5.5985328442814275,-0.0086696812513041
5.585195065021674,-0.01123529865373463
5.57185728576192,-0.009556042233428751
5.558519506502168,-0.010715552663781925
5.545181727242414,-0.01048345061130898
5.531843947982661,-0.008004676232173281
5.518506168722908,-0.008069964691340905
5.5051683894631545,-0.007332111461637009
5.491830610203401,-0.007318991322035102
5.478492830943648,-0.00569702629175287
5.465155051683895,-0.008080085948153173
5.451817272424141,-0.006692347152213294
5.4384794931643885,-0.007422453146813668
5.425141713904635,-0.007961192176686773
5.411803934644881,-0.007323677029438538
5.398466155385129,-0.006252259219573435
5.385128376125375,-0.007547594592605028
5.371790596865622,-0.006880652796668301
5.358452817605869,-0.0073625377839262075
5.3451150383461155,-0.007328112930268914
5.331777259086362,-0.006761196758834714
5.318439479826609,-0.005432998557398697
5.305101700566856,-0.0031472780733968185
5.291763921307102,-0.0057979891481158945
5.2784261420473495,-0.006187720601983064
5.265088362787596,-0.005632050330369434
5.251750583527842,-0.006100940124403993
5.23841280426809,-0.006633743856330825
5.225075025008336,-0.008187921378088126
5.211737245748583,-0.009929279860847413
5.19839946648883,-0.011090602062497396
5.1850616872290765,-0.010772094350749802
5.171723907969323,-0.011100285930514596
5.15838612870957,-0.011770539027501005
5.145048349449817,-0.010127769159728198
5.131710570190063,-0.009527677723980756
5.1183727909303105,-0.00857465379675349
5.105035011670557,-0.006804680771088855
5.091697232410803,-0.007137558129580025
5.078359453151051,-0.00563386203483875
5.065021673891297,-0.0033750067273372545
5.051683894631544,-0.002754610298058997
5.038346115371791,-0.005696464117530371
5.0250083361120375,-0.0063131119566770845
5.011670556852284,-0.006243325199760105
4.998332777592531,-0.0062778749642843365
4.984994998332778,-0.007187289921538018
4.971657219073024,-0.009056413866332312
4.9583194398132715,-0.011180443974409295
4.944981660553518,-0.01285438979549057
4.931643881293764,-0.011851196850682928
4.918306102034012,-0.014209765449412189
4.904968322774258,-0.015080569622823033
4.891630543514505,-0.01488807804569453
4.878292764254752,-0.015281495604939497
4.8649549849949985,-0.013263114145228926
4.851617205735245,-0.013692268577693793
4.838279426475491,-0.01646574691022118
4.824941647215739,-0.01920592510067292
4.811603867955985,-0.017358168328647488
4.798266088696232,-0.015695780782633284
4.784928309436479,-0.01786860536747319
4.771590530176725,-0.016635184744680245
4.758252750916972,-0.01488401733914934
4.744914971657219,-0.014069942217691452
4.731577192397466,-0.013796292989210021
4.718239413137712,-0.014697585988278278
4.7049016338779595,-0.01486633630825461
4.691563854618206,-0.014820790625129636
4.678226075358452,-0.015891021371848137
4.6648882960987,-0.01611356435581704
4.651550516838946,-0.01995096319699286
4.638212737579193,-0.021641652889083027
4.62487495831944,-0.020904299554848585
4.611537179059686,-0.020555740440175673
4.598199399799933,-0.01910596203107684
4.58486162054018,-0.02272312957046773
4.571523841280427,-0.023877391846233574
4.558186062020673,-0.023541015796038425
4.5448482827609205,-0.020180566173188173
4.531510503501167,-0.02103675078911179
4.518172724241413,-0.022907811513399743
4.504834944981661,-0.019152132476706447
4.491497165721907,-0.021970844149175044
4.478159386462154,-0.021446599728631454
4.464821607202401,-0.024316854894021394
4.451483827942647,-0.026968440670607358
4.438146048682894,-0.028602401221910812
4.424808269423141,-0.029565421461607816
4.411470490163388,-0.029828824419076697
4.398132710903634,-0.031071054293133664
4.3847949316438815,-0.03226136583059535
4.371457152384128,-0.030072609689080196
4.358119373124374,-0.02856116649019312
4.344781593864622,-0.029002566383241266
4.331443814604868,-0.028006745714618125
4.318106035345115,-0.027991501298818625
4.304768256085362,-0.02625776496706676
4.291430476825608,-0.025340102993210288
4.278092697565855,-0.02370720450875405
4.264754918306102,-0.023965734271149255
4.251417139046349,-0.025258695477590395
4.238079359786595,-0.024327663418276337
4.2247415805268425,-0.027582526970557703
4.211403801267089,-0.028950585483823753
4.198066022007335,-0.032815724205502786
4.184728242747583,-0.03462824404812401
4.171390463487829,-0.036422583042059434
4.158052684228076,-0.03579169046771159
4.144714904968323,-0.034940816432322
4.131377125708569,-0.03564443226894726
4.118039346448816,-0.03449410602413544
4.104701567189063,-0.030648022832739152
4.09136378792931,-0.03038930557098081
4.078026008669556,-0.03121743800809577
4.0646882294098035,-0.028626454950064793
4.05135045015005,-0.026519293641545715
4.038012670890296,-0.028553231871765967
4.024674891630544,-0.027151185797758694
4.01133711237079,-0.02706552983732028
3.9979993331110366,-0.028519556717920117
3.984661553851284,-0.030198000934974982
3.9713237745915304,-0.0314227996665321
3.957985995331777,-0.03376937279050751
3.944648216072024,-0.03470890168679297
3.9313104368122707,-0.037565536972030696
3.917972657552517,-0.03681887450307441
3.9046348782927645,-0.04109205044163649
3.891297099033011,-0.04364067414811797
3.8779593197732574,-0.04666855875057074
3.8646215405135047,-0.05036819589735109
3.851283761253751,-0.052470921347872554
3.8379459819939976,-0.052731887739125224
3.824608202734245,-0.057354122536554454
3.8112704234744914,-0.05988800166395116
3.797932644214738,-0.05668861773200453
3.784594864954985,-0.057356371738413514
3.7712570856952317,-0.057628771389443605
3.757919306435478,-0.05573584370140189
3.7445815271757255,-0.055262830431366525
3.731243747915972,-0.05520004106603493
3.7179059686562184,-0.05481836913520628
3.7045681893964657,-0.05601055491320569
3.691230410136712,-0.053920699841747355
3.6778926308769586,-0.053513537344418036
3.664554851617206,-0.054490614973835116
3.6512170723574524,-0.0536492373755207
3.637879293097699,-0.05738904724517463
3.624541513837946,-0.05765488676252329
3.6112037345781927,-0.0594259842937879
3.597865955318439,-0.061426122443692124
3.5845281760586865,-0.06149147331394056
3.571190396798933,-0.06032727713819389
3.5578526175391794,-0.059525822296261154
3.5445148382794267,-0.05695301994321401
3.531177059019673,-0.05661833067738298
3.5178392797599196,-0.05761914945072417
3.504501500500167,-0.05569991897148584
3.4911637212404134,-0.058530188900150174
3.47782594198066,-0.05893960061585513
3.464488162720907,-0.06448168412567205
3.4511503834611537,-0.0656260750901816
3.4378126042014,-0.06672660722707248
3.4244748249416475,-0.06594958108596546
3.411137045681894,-0.0689437281782884
3.3977992664221404,-0.06906193468694552
3.3844614871623877,-0.07053076865985027
3.371123707902634,-0.07164598288806569
3.3577859286428806,-0.0728444789211322
3.344448149383128,-0.07396612823582889
3.3311103701233744,-0.07561689517884902
3.317772590863621,-0.07517355846167625
3.304434811603868,-0.0775330018220404
3.2910970323441147,-0.08215817294993116
3.277759253084361,-0.0841641839259196
3.2644214738246085,-0.08651356849063009
3.251083694564855,-0.08821675358484454
3.2377459153051014,-0.09146065238097116
3.2244081360453487,-0.09479045701771083
3.211070356785595,-0.09611878019229589
3.1977325775258416,-0.09743176525959088
3.184394798266089,-0.09453823739988047
3.1710570190063354,-0.09542625407716328
3.157719239746582,-0.09529648947827793
3.144381460486829,-0.09416196988431694
3.1310436812270757,-0.09639414764094366
3.117705901967322,-0.09720122546829117
3.1043681227075695,-0.09568194135612745
3.091030343447816,-0.09519480830441467
3.0776925641880624,-0.0955760741250384
3.0643547849283097,-0.0987510608253491
3.051017005668556,-0.10134751060272257
3.0376792264088026,-0.10626860406119631
3.02434144714905,-0.10773190872440475
3.0110036678892964,-0.11007307752930803
2.997665888629543,-0.11416572613067044
2.98432810936979,-0.11799768954500842
2.9709903301100367,-0.12188785024325773
2.957652550850283,-0.12286848896508915
2.9443147715905305,-0.12459304111611146
2.930976992330777,-0.12234596260721206
2.9176392130710234,-0.12307884897271001
2.9043014338112707,-0.12490017808246726
2.890963654551517,-0.12394612334298345
2.8776258752917636,-0.12786239953296122
2.864288096032011,-0.13434801053475218
2.8509503167722574,-0.13597609838753258
2.837612537512504,-0.1378537504814211
2.824274758252751,-0.1413140384449018
2.8109369789929977,-0.14298395456015262
2.797599199733244,-0.14529400989752395
2.7842614204734915,-0.1455299855031021
2.770923641213738,-0.14764123903175164
2.7575858619539844,-0.14888699891023716
2.7442480826942317,-0.15138988946425963
2.730910303434478,-0.15216154271548438
2.7175725241747246,-0.14925570687154302
2.704234744914972,-0.1493551701477305
2.6908969656552184,-0.14735490693768682
2.677559186395465,-0.14762449512119233
2.664221407135712,-0.14522669089312595
2.6508836278759587,-0.15068639848934637
2.637545848616205,-0.15538975963373358
2.6242080693564525,-0.16128914907299666
2.610870290096699,-0.16637524427147155
2.5975325108369454,-0.1696217045753669
2.5841947315771927,-0.17326539357575305
2.570856952317439,-0.17513564208979235
2.5575191730576856,-0.17567116349579465
2.544181393797933,-0.17864397459906126
2.5308436145381794,-0.1789733845908606
2.517505835278426,-0.1817052219879007
2.504168056018673,-0.1855039475890129
2.4908302767589197,-0.1878006953499487
2.477492497499166,-0.19122230999305195
2.4641547182394135,-0.1934319959954891
2.45081693897966,-0.19367756177454698
2.4374791597199064,-0.19805563656660563
2.4241413804601537,-0.20074680152057028
2.4108036012004,-0.20348216895064333
2.3974658219406466,-0.20980593322028798
2.384128042680894,-0.21627217638462354
2.3707902634211404,-0.21914271276762814
2.357452484161387,-0.22044682617251884
2.344114704901634,-0.22063581901850957
2.3307769256418807,-0.2209870958446819
2.317439146382127,-0.22409866842553125
2.3041013671223745,-0.2241498995806562
2.290763587862621,-0.22414209002465899
2.2774258086028674,-0.22779108975626217
2.2640880293431147,-0.22824114282204527
2.250750250083361,-0.23185952863155979
2.2374124708236076,-0.23468070815843456
2.224074691563855,-0.23722139735369926
2.2107369123041014,-0.23942717857288714
2.197399133044348,-0.2410097206062522
2.184061353784595,-0.24377954401030216
2.1707235745248417,-0.2488891305267359
2.157385795265088,-0.2536095167018791
2.1440480160053355,-0.2581889235989867
2.130710236745582,-0.2648576233442014
2.1173724574858284,-0.2679688522622445
2.1040346782260757,-0.2730154619130487
2.090696898966322,-0.27884468956674885
2.0773591197065686,-0.2867096361673964
2.064021340446816,-0.29193952227425457
2.0506835611870624,-0.29984161154491684
2.037345781927309,-0.30550789931152833
2.024008002667556,-0.31197760985692446
2.0106702234078027,-0.31693884473635053
1.99733244414805,-0.3226014462702276
1.9839946648882965,-0.3264744570048904
1.970656885628543,-0.33097130043971934
1.9573191063687894,-0.33441612520576536
1.9439813271090358,-0.3345094657575742
1.9306435478492823,-0.3390855925066852
1.9173057685895305,-0.340764911322452
1.903967989329777,-0.3445653550608432
1.8906302100700234,-0.3461427740209341
1.8772924308102699,-0.34779519652357593
1.8639546515505163,-0.3491151164802465
1.8506168722907628,-0.35197315732472934
1.837279093031011,-0.3531281693656356
1.8239413137712575,-0.3545354635594774
1.810603534511504,-0.3596523912310171
1.7972657552517504,-0.36695698183225645
1.7839279759919968,-0.3729268452074522
1.7705901967322433,-0.3771441979785442
1.7572524174724915,-0.3840944814278574
1.743914638212738,-0.38822086767202946
1.7305768589529844,-0.39797811713573694
1.7172390796932309,-0.40449078049881987
1.7039013004334773,-0.4126195049776892
1.6905635211737238,-0.41399581057411683
1.677225741913972,-0.41558513146428644
1.6638879626542185,-0.42269491875366644
1.650550183394465,-0.42617523038556515
1.6372124041347114,-0.4274854977229532
1.6238746248749578,-0.43012233891789986
1.6105368456152043,-0.43285786257769393
1.5971990663554525,-0.4345324955966551
1.583861287095699,-0.4346060934756119
1.5705235078359454,-0.4366643353159756
1.5571857285761919,-0.43925097616101094
1.5438479493164383,-0.44760471133331187
1.5305101700566848,-0.455925896132664
1.517172390796933,-0.46184137346638054
1.5038346115371795,-0.4668489351993528
1.490496832277426,-0.4765513610523284
1.4771590530176724,-0.48537420481993876
1.4638212737579188,-0.4959129476324119
1.4504834944981653,-0.5018917140332402
1.4371457152384135,-0.5078672316934837
1.42380793597866,-0.5090119663313958
1.4104701567189064,-0.5174005325494235
1.3971323774591529,-0.5210222296999354
1.3837945981993993,-0.5228302824703036
1.3704568189396458,-0.5220744984926317
1.357119039679894,-0.5241691018757071
1.3437812604201405,-0.5237702487604504
1.330443481160387,-0.528944155238174
1.3171057019006334,-0.5324433661934993
1.3037679226408798,-0.5368422144786013
1.2904301433811263,-0.5418469644335353
1.2770923641213745,-0.5518121372877227
1.263754584861621,-0.562386023487294
1.2504168056018674,-0.5691753975465479
1.2370790263421139,-0.575615525094838
1.2237412470823603,-0.5855312474831057
1.2104034678226068,-0.5940202455589304
1.197065688562855,-0.5983828260093446
1.1837279093031015,-0.6045455559425726
1.170390130043348,-0.6104985505185506
1.1570523507835944,-0.6184334402342536
1.1437145715238408,-0.6229415297376512
1.1303767922640873,-0.6225891596981907
1.1170390130043355,-0.6294830266179507
1.103701233744582,-0.6351530943419299
1.0903634544848284,-0.6414285640261018
1.0770256752250749,-0.646193746181262
1.0636878959653213,-0.6520241923182911
1.0503501167055678,-0.6561323039319427
1.037012337445816,-0.6620119506302228
1.0236745581860625,-0.6725419154619802
1.010336778926309,-0.6814152094009646
0.9969989996665554,-0.6877817703013102
0.9836612204068018,-0.6904837749578953
0.9703234411470483,-0.6978065461707368
0.9569856618872965,-0.7058692636671233
0.943647882627543,-0.7116109297139814
0.9303101033677894,-0.7185335668402678
0.9169723241080359,-0.7269704590051957
0.9036345448482823,-0.7341764918747512
0.8902967655885288,-0.7434226797551193
0.876958986328777,-0.7497418520400505
0.8636212070690235,-0.7586735620707955
0.8502834278092699,-0.7705394412843514
0.8369456485495164,-0.7806108252873923
0.8236078692897628,-0.7879651786204304
0.8102700900300093,-0.7922272959322667
0.7969323107702575,-0.7968185111201763
0.783594531510504,-0.8042456501573984
0.7702567522507504,-0.8108128874171343
0.7569189729909969,-0.8165736715452951
0.7435811937312433,-0.8211000354196428
0.7302434144714898,-0.8242997629223698
0.716905635211738,-0.830101094795923
0.7035678559519845,-0.8397603179102597
0.6902300766922309,-0.848671472893649
0.6768922974324774,-0.8548478850052436
0.6635545181727238,-0.8590230343449375
0.6502167389129703,-0.8638398539812135
0.6368789596532185,-0.8692263072552241
0.623541180393465,-0.8763416240787277
0.6102034011337114,-0.8823171105555586
0.5968656218739579,-0.8900596647620991
0.5835278426142043,-0.8990297665805166
0.5701900633544508,-0.9061466451153033
0.556852284094699,-0.9157117780408797
0.5435145048349455,-0.9211976635621106
0.5301767255751919,-0.9250223173499459
0.5168389463154384,-0.9268188741266902
0.5035011670556848,-0.9344933597164826
0.49016338779593127,-0.942524526417492
0.4768256085361795,-0.948372372416773
0.46348782927642596,-0.9577123382005708
0.4501500500166724,-0.9656554436128331
0.43681227075691886,-0.9742447482647565
0.4234744914971653,-0.9812698165608866
0.41013671223741177,-0.9855613603115552
0.39679893297766,-0.9894849460773656
0.38346115371790646,-0.9959881132268896
0.3701233744581529,-1.0002735033726193
0.35678559519839936,-1.0061583980086186
0.3434478159386458,-1.0153493245440433
0.33011003667889227,-1.0243101797904233
0.3167722574191405,-1.0303597011471919
0.30343447815938696,-1.0340671793160718
0.2900966988996334,-1.0443055328498594
0.27675891963987986,-1.047926042760706
0.2634211403801263,-1.0518779308242814
0.25008336112037277,-1.0582480842663322
0.236745581860621,-1.0665854820865697
0.22340780260086746,-1.074915132842359
0.2100700233411139,-1.0801617003796988
0.19673224408136036,-1.0889531183152983
0.18339446482160682,-1.0962972568392828
0.17005668556185327,-1.106413061894545
0.1567189063021015,-1.1166747820063747
0.14338112704234796,-1.1228839321802409
0.1300433477825944,-1.1322700686840164
0.11670556852284086,-1.138126036862164
0.10336778926308732,-1.1452973327688982
0.09003001000333377,-1.1539417107652836
0.076692230743582,-1.1629048464451939
0.06335445148382846,-1.1690592981110008
0.05001667222407491,-1.1736035304813792
0.036678892964321363,-1.1806522775773942
0.023341113704567817,-1.1924353745292993
0.010003334444814271,-1.2003210323312241
-0.0033344448149374983,-1.2019652391816713
-0.016672224074691044,-1.2071061891761294
-0.03001000333444459,-1.210465233193058
-0.043347782594198137,-1.2189049992921301
-0.05668556185395168,-1.2225373176058079
-0.07002334111370523,-1.2285951173777243
-0.083361120373457,-1.2352823416541157
-0.09669889963321054,-1.2412148440340605
-0.11003667889296409,-1.2461589918434277
-0.12337445815271764,-1.2532026158376022
-0.13671223741247118,-1.2586942491742898
-0.15005001667222473,-1.259906896063614
-0.1633877959319765,-1.2658744166214948
-0.17672557519173004,-1.2706963904143307
-0.1900633544514836,-1.2724852311894383
-0.20340113371123714,-1.2788535102876586
-0.21673891297099068,-1.2889646296737476
-0.23007669223074423,-1.2990959287229091
-0.243414471490496,-1.302698851490198
-0.25675225075024954,-1.30939029290653
-0.2700900300100031,-1.3142095174969084
-0.28342780926975664,-1.321935484132485
-0.2967655885295102,-1.3274341458815928
-0.31010336778926373,-1.3372666174414392
-0.3234411470490173,-1.3422714926115744
-0.33677892630876904,-1.350231778972085
-0.3501167055685226,-1.357989702565531
-0.36345448482827614,-1.3684008988501333
-0.3767922640880297,-1.3777388343535628
-0.39013004334778323,-1.384293544266448
-0.4034678226075368,-1.385637455234292
-0.41680560186728854,-1.3881767389760378
-0.4301433811270421,-1.3937941701603433
-0.44348116038679564,-1.399760534875125
-0.4568189396465492,-1.39991766415686
-0.47015671890630273,-1.407179833061086
-0.4834944981660563,-1.4141777556697275
-0.49683227742580804,-1.4123823236182438
-0.5101700566855616,-1.4111273171174976
-0.5235078359453151,-1.418289241650845
-0.5368456152050687,-1.4211042358775157
-0.5501833944648222,-1.4258697302899705
-0.5635211737245758,-1.4310102739111616
-0.5768589529843275,-1.4373908296353775
-0.5901967322440811,-1.443167295311419
-0.6035345115038346,-1.4539193345745676
-0.6168722907635882,-1.4600089662784312
-0.6302100700233417,-1.4643412767094794
-0.6435478492830953,-1.4714226057097386
-0.656885628542847,-1.4742934539123862
-0.6702234078026006,-1.4826489075029765
-0.6835611870623541,-1.4900442773982645
-0.6968989663221077,-1.4974105017517743
-0.7102367455818612,-1.5009575388308307
-0.7235745248416148,-1.501401687834784
-0.7369123041013665,-1.5056672417382784
-0.7502500833611201,-1.5046359029408964
-0.7635878626208736,-1.503498321969459
-0.7769256418806272,-1.5073699266504352
-0.7902634211403807,-1.5091847891581065
-0.8036012004001343,-1.5088063658358963
-0.816938979659886,-1.5112356582511302
-0.8302767589196396,-1.511255494619742
-0.8436145381793931,-1.5133817739170863
-0.8569523174391467,-1.5170737889114747
-0.8702900966989002,-1.5182369231855044
-0.8836278759586538,-1.5170164041004222
-0.8969656552184055,-1.5218055777643276
-0.9103034344781591,-1.5318346336425384
-0.9236412137379126,-1.5352770841985117
-0.9369789929976662,-1.5426962579262589
-0.9503167722574197,-1.544581314196611
-0.9636545515171733,-1.548392598145603
-0.976992330776925,-1.552151807035428
-0.9903301100366786,-1.557634537317489
-1.0036678892964321,-1.5649286937704117
-1.0170056685561857,-1.5677929199862004
-1.0303434478159392,-1.5704388203211581
-1.0436812270756928,-1.5765784333027588
-1.0570190063354445,-1.5782614070774723
-1.070356785595198,-1.5799985169056805
-1.0836945648549516,-1.5850509993013155
-1.0970323441147052,-1.5894026462851587
-1.1103701233744587,-1.5932249256626387
-1.1237079026342123,-1.5937458276119731
-1.137045681893964,-1.5972358860346152
-1.1503834611537176,-1.6012463774858967
-1.1637212404134711,-1.6069630528057208
-1.1770590196732247,-1.605964951672461
-1.1903967989329782,-1.6042733560181242
-1.2037345781927318,-1.603025471919453
-1.2170723574524835,-1.5979589318995715
-1.230410136712237,-1.5963666430413
-1.2437479159719906,-1.598019065337815
-1.2570856952317442,-1.5974943520462759
-1.2704234744914977,-1.6009763505111108
-1.2837612537512513,-1.5987054999789305
-1.297099033011003,-1.59674259804634
-1.3104368122707566,-1.5988790919027098
-1.3237745915305101,-1.600904408645882
-1.3371123707902637,-1.6052535564337167
-1.3504501500500172,-1.6083412630634104
-1.3637879293097708,-1.6127823774557941
-1.3771257085695225,-1.6120920383403707
-1.390463487829276,-1.6123858682367562
-1.4038012670890296,-1.6162700938741832
-1.4171390463487832,-1.6153249111486876
-1.4304768256085367,-1.617365784203121
-1.4438146048682903,-1.613820715522929
-1.457152384128042,-1.6154353395360723
-1.4704901633877956,-1.6150187113793588
-1.4838279426475491,-1.6139076519016955
-1.4971657219073027,-1.6179389791663312
-1.5105035011670562,-1.6223857783524454
-1.5238412804268098,-1.6216379600918043
-1.5371790596865615,-1.6248644901119784
-1.550516838946315,-1.6221722008368578
-1.5638546182060686,-1.6201189569043997
-1.5771923974658222,-1.620021867543774
-1.5905301767255757,-1.6233180285891675
-1.6038679559853293,-1.6252913641154942
-1.617205735245081,-1.6266057239088425
-1.6305435145048346,-1.627687481711675
-1.6438812937645881,-1.624718138067997
-1.6572190730243417,-1.6247657457186158
-1.6705568522840952,-1.626336167212692
-1.6838946315438488,-1.6264858935576498
-1.6972324108036005,-1.6281190419463039
-1.710570190063354,-1.6257024634577786
-1.7239079693231076,-1.6292064537390147
-1.7372457485828612,-1.6290177110707091
-1.7505835278426147,-1.6319524427338847
-1.7639213071023683,-1.6338620829845776
-1.77725908636212,-1.6306312106202931
-1.7905968656218736,-1.6288373090675163
-1.8039346448816271,-1.6258414127263858
-1.8172724241413807,-1.6219341024001293
-1.8306102034011342,-1.617730806642919
-1.8439479826608878,-1.6130213230705883
-1.8572857619206395,-1.6114274727135183
-1.870623541180393,-1.614059659178626
-1.8839613204401466,-1.6155932191156843
-1.8972990996999002,-1.6163312907997267
-1.9106368789596537,-1.6164049509461362
-1.9239746582194073,-1.6179718734784323
-1.937312437479159,-1.6243912896235404
-1.9506502167389126,-1.6239125597506199
-1.9639879959986661,-1.6231905131690838
-1.9773257752584197,-1.621811020859211
-1.9906635545181732,-1.6247686190088293
-2.0040013337779268,-1.6252226085661161
-2.0173391130376785,-1.6270976050086872
-2.030676892297432,-1.6250234315766552
-2.0440146715571856,-1.6223153664680654
-2.057352450816939,-1.6184500719611714
-2.0706902300766927,-1.611251598925778
-2.0840280093364463,-1.6086775783163745
-2.097365788596198,-1.604479031323256
-2.1107035678559516,-1.598686821733892
-2.124041347115705,-1.5990299141185282
-2.1373791263754587,-1.6001278848232454
-2.1507169056352122,-1.5984775551942034
-2.1640546848949658,-1.598392836286048
-2.1773924641547175,-1.6006652490977542
-2.190730243414471,-1.6013696148670524
-2.2040680226742246,-1.60622913767443
-2.217405801933978,-1.604289258695056
-2.2307435811937317,-1.6040526273462168
-2.2440813604534853,-1.6027849690752347
-2.257419139713237,-1.6056479144208846
-2.2707569189729906,-1.6049682585575227
-2.284094698232744,-1.6031181897812088
-2.2974324774924977,-1.6023605937684908
-2.3107702567522512,-1.5998289009586877
-2.3241080360120048,-1.5981764159224892
-2.3374458152717565,-1.5982087474584328
-2.35078359453151,-1.5987087819564676
-2.3641213737912636,-1.5952694550760707
-2.377459153051017,-1.5910289859349023
-2.3907969323107707,-1.5930611120679965
-2.4041347115705243,-1.590852019649387
-2.417472490830276,-1.5904662552347881
-2.4308102700900296,-1.5910781863633883
-2.444148049349783,-1.590688861381866
-2.4574858286095367,-1.5890970420031134
-2.4708236078692902,-1.5907417799976622
-2.4841613871290438,-1.5879027003180286
-2.4974991663887955,-1.5866087084498115
-2.510836945648549,-1.5848174302204758
-2.5241747249083026,-1.5827030215033142
-2.537512504168056,-1.5788028018032916
-2.5508502834278097,-1.576587055650796
-2.5641880626875633,-1.575759610179922
-2.577525841947315,-1.5769977477681674
-2.5908636212070686,-1.5771945504059568
-2.604201400466822,-1.5734233458486062
-2.6175391797265757,-1.5736060289030647
-2.6308769589863292,-1.572969669410702
-2.6442147382460828,-1.5730826593337675
-2.6575525175058345,-1.575176731624201
-2.670890296765588,-1.5738587489421387
-2.6842280760253416,-1.571822249358672
-2.697565855285095,-1.570930609103179
-2.7109036345448487,-1.5681029006125824
-2.7242414138046023,-1.5663706947742098
-2.737579193064354,-1.562891882254335
-2.7509169723241076,-1.5632031422944066
-2.764254751583861,-1.5633168507964978
-2.7775925308436147,-1.56035403541088
-2.7909303101033682,-1.5585485754361827
-2.8042680893631218,-1.5575154244806437
-2.8176058686228735,-1.5594009489430793
-2.830943647882627,-1.5585464198458951
-2.8442814271423806,-1.557586929650786
-2.857619206402134,-1.5567233104155045
-2.8709569856618877,-1.557563906963488
-2.8842947649216413,-1.5614641892496213
-2.897632544181393,-1.5631624389340675
-2.9109703234411466,-1.5631690614970422
-2.9243081027009,-1.5646263060907368
-2.9376458819606537,-1.5629830987464768
-2.9509836612204072,-1.559730078165129
-2.9643214404801608,-1.5567699495164933
-2.9776592197399125,-1.5532773611425692
-2.990996998999666,-1.5524014025045396
-3.0043347782594196,-1.5501708179875708
-3.017672557519173,-1.551595793248076
-3.0310103367789267,-1.5481822382563524
-3.0443481160386803,-1.5469227023585326
-3.057685895298432,-1.5432265951516893
-3.0710236745581856,-1.5399802910191145
-3.084361453817939,-1.5381029825150372
-3.0976992330776927,-1.5329170180378227
-3.1110370123374462,-1.531022590638536
-3.1243747915971998,-1.5304716062123003
-3.1377125708569515,-1.53146502149082
-3.151050350116705,-1.5331735486946407
-3.1643881293764586,-1.5347339738253036
-3.177725908636212,-1.5356370780482473
-3.1910636878959657,-1.5366095633331607
-3.2044014671557193,-1.5354224378788717
-3.217739246415471,-1.5370636460398734
-3.2310770256752246,-1.535822540414848
-3.244414804934978,-1.5402023644819898
-3.2577525841947317,-1.5427658258953587
-3.2710903634544852,-1.5393479600077595
-3.2844281427142388,-1.5431880766689132
-3.2977659219739905,-1.5420559624840409
-3.311103701233744,-1.541330261327062
-3.3244414804934976,-1.5363630596177185
-3.337779259753251,-1.5337937562343888
-3.3511170390130047,-1.5256142377204
-3.3644548182727583,-1.5234373211465881
-3.37779259753251,-1.5229068911131787
-3.3911303767922636,-1.5219979759888553
-3.404468156052017,-1.5202809523043976
-3.4178059353117707,-1.5205538831811514
-3.4311437145715242,-1.5187875022917012
-3.4444814938312778,-1.5178630930321548
-3.4578192730910295,-1.5139918314712544
-3.471157052350783,-1.5121549771902667
-3.4844948316105366,-1.5127738119479788
-3.49783261087029,-1.5095390972354708
-3.5111703901300437,-1.5103522977238586
-3.5245081693897973,-1.508989143731794
-3.537845948649549,-1.5065039344042868
-3.5511837279093026,-1.508402047981333
-3.564521507169056,-1.5059833142767383
-3.5778592864288097,-1.503899738424908
-3.5911970656885632,-1.5007031037523135
-3.6045348449483168,-1.4992771290500493
-3.6178726242080685,-1.4976503221164723
-3.631210403467822,-1.5020486083100348
-3.6445481827275756,-1.5020346755130993
-3.657885961987329,-1.4979568963865517
-3.6712237412470827,-1.4952796013035445
-3.6845615205068363,-1.4995665531263827
-3.69789929976659,-1.4990190359682383
-3.7112370790263416,-1.4966099860787312
-3.724574858286095,-1.494171883992887
-3.7379126375458487,-1.4888547802266188
-3.7512504168056022,-1.486861639387934
-3.7645881960653558,-1.4835001588891534
-3.7779259753251093,-1.4830697546262415
-3.791263754584861,-1.4808099619739248
-3.8046015338446146,-1.478738756126122
-3.817939313104368,-1.4772007603960406
-3.8312770923641217,-1.4759162021185164
-3.8446148716238753,-1.4723019086190983
-3.857952650883629,-1.4693762362228622
-3.8712904301433806,-1.4699361862988072
-3.884628209403134,-1.467839833684685
-3.8979659886628877,-1.4662800642809328
-3.9113037679226412,-1.4642986063798575
-3.9246415471823948,-1.4614250398853224
-3.9379793264421483,-1.4638219690547527
-3.9513171057019,-1.4677082250913271
-3.9646548849616536,-1.466943881974992
-3.977992664221407,-1.4655341201147323
-3.9913304434811607,-1.4644553297963918
-4.004668222740914,-1.4628262422981204
-4.018006002000668,-1.466623218375461
-4.03134378126042,-1.4670556528961378
-4.044681560520173,-1.4680952697497882
-4.058019339779927,-1.4675354447110727
-4.07135711903968,-1.467828899319425
-4.084694898299434,-1.4643232842883753
-4.098032677559187,-1.4593396201662507
-4.111370456818939,-1.4544545762431929
-4.124708236078693,-1.452137461177254
-4.138046015338446,-1.4509593331547774
-4.1513837945982,-1.4491554664251969
-4.164721573857953,-1.4477939365408945
-4.178059353117707,-1.4450335470312816
-4.191397132377459,-1.4433644745628618
-4.204734911637212,-1.4445015871059572
-4.218072690896966,-1.4436391551598005
-4.231410470156719,-1.4447972285346795
-4.244748249416473,-1.4434699672498756
-4.258086028676226,-1.4449081244688708
-4.271423807935978,-1.4469745819973976
-4.284761587195732,-1.4495009947430866
-4.298099366455485,-1.4496002081608654
-4.311437145715239,-1.4496353826385586
-4.324774924974992,-1.4489430121773428
-4.338112704234746,-1.4484425712361688
-4.351450483494498,-1.4445305121934386
-4.364788262754251,-1.441244910242723
-4.378126042014005,-1.4406734022040704
-4.391463821273758,-1.440014332591828
-4.404801600533512,-1.437624525804379
-4.418139379793265,-1.4348124989809663
-4.431477159053017,-1.4318998843321893
-4.444814938312771,-1.428729334054625
-4.458152717572524,-1.4264323680783515
-4.471490496832278,-1.4251180086564479
-4.484828276092031,-1.4201643959042651
-4.498166055351785,-1.4193770294729968
-4.511503834611537,-1.417917254812057
-4.52484161387129,-1.4213523954688163
-4.538179393131044,-1.4216399459193645
-4.551517172390797,-1.4231866572160174
-4.564854951650551,-1.4221935228341325
-4.578192730910304,-1.4216272312541287
-4.591530510170056,-1.4227344792358194
-4.60486828942981,-1.4228909217711532
-4.618206068689563,-1.4221249228107227
-4.631543847949317,-1.4236771636491221
-4.64488162720907,-1.4267998255917262
-4.658219406468824,-1.4284756457101118
-4.671557185728576,-1.4273870466755523
-4.684894964988329,-1.4266443826181547
-4.698232744248083,-1.4244495662080652
-4.711570523507836,-1.4222880501227215
-4.72490830276759,-1.41928740522257
-4.738246082027343,-1.4148205192907368
-4.751583861287095,-1.409981926270706
-4.764921640546849,-1.409542712954239
-4.778259419806602,-1.4077628685009693
-4.791597199066356,-1.4038197896787918
-4.804934978326109,-1.399092999647461
-4.818272757585863,-1.3951121532947872
-4.831610536845615,-1.3912056234214625
-4.844948316105368,-1.3861357096745226
-4.858286095365122,-1.3845407036178456
-4.871623874624875,-1.3823434194870408
-4.884961653884629,-1.3836228547131972
-4.898299433144382,-1.3851765634606754
-4.911637212404134,-1.3869787745400495
-4.924974991663888,-1.3893255042176011
-4.938312770923641,-1.389505219756946
-4.951650550183395,-1.3917410526291247
-4.964988329443148,-1.3912743809119295
-4.978326108702902,-1.3901096848887458
-4.991663887962654,-1.3915825798541535
-5.005001667222407,-1.391785598877997
-5.018339446482161,-1.3943574328465729
-5.031677225741914,-1.394974674437674
-5.045015005001668,-1.3930091486435139
-5.058352784261421,-1.3915229462556573
-5.071690563521173,-1.3892611229276854
-5.085028342780927,-1.3878213403289938
-5.09836612204068,-1.3874432292587529
-5.111703901300434,-1.3873779718078088
-5.125041680560187,-1.3901421099187727
-5.138379459819941,-1.3893553061068993
-5.151717239079693,-1.3894057249468057
-5.165055018339446,-1.3864787093769761
-5.1783927975992,-1.3853464704984526
-5.191730576858953,-1.3852874298621283
-5.205068356118707,-1.3801633799046027
-5.21840613537846,-1.3777127509672555
-5.231743914638212,-1.372418857206599
-5.245081693897966,-1.3697276298486245
-5.258419473157719,-1.3718284186056249
-5.271757252417473,-1.3697699893661106
-5.285095031677226,-1.3691718660335395
-5.29843281093698,-1.3668812409771025
-5.311770590196732,-1.3630012950483967
-5.325108369456485,-1.3627023424366815
-5.338446148716239,-1.3607542474995913
-5.351783927975992,-1.3618689927414878
-5.365121707235746,-1.361904323533854
-5.378459486495499,-1.3653313737416983
-5.391797265755251,-1.3634118309765988
-5.405135045015005,-1.3623558764343235
-5.418472824274758,-1.364125068781109
-5.431810603534512,-1.3633150862302097
-5.445148382794265,-1.3642686102204724
-5.458486162054019,-1.3643760081810843
-5.471823941313771,-1.3643379599516599
-5.485161720573524,-1.365566382186983
-5.498499499833278,-1.367746735527649
-5.511837279093031,-1.3692129141208893
-5.525175058352785,-1.3687138164647625
-5.538512837612538,-1.3706764684815242
-5.55185061687229,-1.3681642065267474
-5.565188396132044,-1.3678889329144528
-5.578526175391797,-1.3674493133680379
-5.591863954651551,-1.369931274140634
-5.605201733911304,-1.3675949474488318
-5.618539513171058,-1.3644233344497123
-5.63187729243081,-1.3606134566788217
-5.645215071690563,-1.360567535832575
-5.658552850950317,-1.3566008719273441
-5.67189063021007,-1.35872599509237
-5.685228409469824,-1.3595160477078332
-5.698566188729577,-1.3580757656465474
-5.711903967989329,-1.3576706651838608
-5.725241747249083,-1.3583474473275277
-5.738579526508836,-1.3611910561847336
-5.75191730576859,-1.3612323221468547
-5.765255085028343,-1.3602009518912408
-5.778592864288097,-1.3597529293406971
-5.791930643547849,-1.3595833042537058
-5.805268422807602,-1.3632418942607138
-5.818606202067356,-1.360541170341488
-5.831943981327109,-1.3615244019810593
-5.845281760586863,-1.3601443479932582
-5.858619539846616,-1.3591012947745063
-5.871957319106368,-1.3557224458739965
-5.885295098366122,-1.3546454984560325
-5.898632877625875,-1.3528430372096196
-5.911970656885629,-1.3523642132203704
-5.925308436145382,-1.3489860824466444
-5.938646215405136,-1.3463370581404246
-5.951983994664888,-1.3416928627757807
-5.965321773924641,-1.340100949388281
-5.978659553184395,-1.3391542046290554
-5.991997332444148,-1.3394616853227757
-6.0053351117039,-1.3387775934087998
-6.0186728909636535,-1.3354167689139946
-6.032010670223407,-1.332067689903697
-6.045348449483161,-1.3352402715216498
-6.058686228742914,-1.3335526118894019
-6.072024008002668,-1.3329464289647812
-6.085361787262421,-1.329245105043529
-6.098699566522175,-1.3291465789306096
-6.112037345781928,-1.3281226433598992
-6.125375125041682,-1.3294970744503058
-6.1387129043014355,-1.3320387320075215
-6.1520506835611855,-1.3326515062837732
-6.165388462820939,-1.332133509873162
-6.1787262420806925,-1.3307820391063772
-6.192064021340446,-1.327276642839961
-6.2054018006002,-1.3231968020208644
-6.218739579859953,-1.3230440458719095
-6.232077359119707,-1.3241923730554324
-6.24541513837946,-1.3273188775535407
-6.258752917639214,-1.3264379208389905
-6.272090696898967,-1.3267042910285167
-6.285428476158721,-1.3273779179042495
-6.2987662554184745,-1.3299553748213158
-6.3121040346782245,-1.3326958340173258
-6.325441813937978,-1.3303656296339592
-6.3387795931977315,-1.33116427254308
-6.352117372457485,-1.3312666411276024
-6.365455151717239,-1.3334854486639223
-6.378792930976992,-1.3333357226464726
-6.392130710236746,-1.336304348036465
-6.405468489496499,-1.3372648692270757
-6.418806268756253,-1.3357369322743833
-6.432144048016006,-1.3348170837522573
-6.44548182727576,-1.3327055177538525
-6.4588196065355135,-1.3309195816117194
-6.4721573857952635,-1.3267128187887793
-6.485495165055017,-1.3285108441786573
-6.4988329443147705,-1.328240787382794
-6.512170723574524,-1.329544681795896
-6.525508502834278,-1.32542085675126
-6.538846282094031,-1.3267893836422426
-6.552184061353785,-1.3238014219914667
-6.565521840613538,-1.3235674458476572
-6.578859619873292,-1.3225366690731128
-6.592197399133045,-1.3207334269102426
-6.605535178392799,-1.3218786926485726
-6.6188729576525525,-1.3198747748290613
-6.6322107369123025,-1.3205955408509173
-6.645548516172056,-1.3201315242376257
-6.6588862954318095,-1.32206168821242
-6.672224074691563,-1.3200301244771644
-6.685561853951317,-1.3222779842977277
-6.69889963321107,-1.322026889491411
-6.712237412470824,-1.3230947774058204
-6.725575191730577,-1.3234703579997262
-6.738912970990331,-1.3192812135796104
-6.752250750250084,-1.3202390795079544
-6.765588529509838,-1.318488786575049
-6.7789263087695915,-1.3194957904414832
-6.7922640880293415,-1.3171255073165113
-6.805601867289095,-1.3174526682509597
-6.8189396465488485,-1.3147298276966177
-6.832277425808602,-1.3166615222023743
-6.845615205068356,-1.3158546939208144
-6.858952984328109,-1.3164519428348385
-6.872290763587863,-1.315536280531477
-6.885628542847616,-1.3133235955770775
-6.89896632210737,-1.311478931438796
-6.912304101367123,-1.3101276792755794
-6.925641880626877,-1.3092926747210514
-6.9389796598866305,-1.3058029289685065
-6.9523174391463805,-1.3048650868507365
-6.965655218406134,-1.3016282165686175
-6.9789929976658875,-1.2999051637325825
-6.992330776925641,-1.298944860853286
-7.005668556185395,-1.2971530204759942
-7.019006335445148,-1.3006256162298309
-7.032344114704902,-1.3015632397286365
-7.045681893964655,-1.3067203089053054
-7.059019673224409,-1.306508355968138
-7.072357452484162,-1.305002254191121
-7.085695231743916,-1.3071207551189752
-7.0990330110036695,-1.3083162833406283
-7.112370790263423,-1.3077577705698331
-7.125708569523173,-1.3081184194379887
-7.1390463487829265,-1.3025050188109597
-7.15238412804268,-1.3012459513886672
-7.165721907302434,-1.2982804190727202
-7.179059686562187,-1.2952823673082878
-7.192397465821941,-1.2896542218391174
-7.205735245081694,-1.285766153835052
-7.219073024341448,-1.2848691717329415
-7.232410803601201,-1.2846510331350687
-7.245748582860955,-1.2851160491384603
-7.2590863621207085,-1.2841357535381315
-7.272424141380462,-1.2840037397737882
-7.285761920640212,-1.286762348670735
-7.2990996998999655,-1.2908266014475132
-7.312437479159719,-1.2927959381386054
-7.325775258419473,-1.294227410611538
-7.339113037679226,-1.2947122628612466
-7.35245081693898,-1.298347330106152
-7.365788596198733,-1.2984025285444027
-7.379126375458487,-1.2961891561978844
-7.39246415471824,-1.2948453073838486
-7.405801933977994,-1.292652459224355
-7.4191397132377475,-1.2921693248098842
-7.432477492497501,-1.2894713187824391
-7.445815271757251,-1.288910931540847
-7.4591530510170045,-1.2879324483306327
-7.472490830276758,-1.2890298876268658
-7.485828609536512,-1.2904274665533535
-7.499166388796265,-1.2858482784128946
-7.512504168056019,-1.2836444965881864
-7.525841947315772,-1.281638673189927
-7.539179726575526,-1.2840531277014016
-7.552517505835279,-1.2874557178403967
-7.565855285095033,-1.289481190289297
-7.5791930643547865,-1.287310958347502
-7.59253084361454,-1.290484351953329
-7.60586862287429,-1.2866804717701883
-7.6192064021340435,-1.2848983154485922
-7.632544181393797,-1.2811470721380827
-7.645881960653551,-1.2794983042340762
-7.659219739913304,-1.2792236867250062
-7.672557519173058,-1.2787219342178744
-7.685895298432811,-1.2793034075524146
-7.699233077692565,-1.27929462934084
-7.712570856952318,-1.2834251703902684
-7.725908636212072,-1.2815818802788776
-7.7392464154718255,-1.2810459213568404
-7.752584194731579,-1.2817102393202326
-7.765921973991329,-1.2793250243987628
-7.7792597532510825,-1.2794726890095929
-7.792597532510836,-1.2808826697624256
-7.80593531177059,-1.281166627614945
-7.819273091030343,-1.280161497810413
-7.832610870290097,-1.2776180282722223
-7.84594864954985,-1.276365614279912
-7.859286428809604,-1.275487062774232
-7.872624208069357,-1.2711226078482971
-7.885961987329111,-1.2698096538763353
-7.8992997665888645,-1.2670060617037446
-7.912637545848618,-1.2693076825188374
-7.925975325108368,-1.267514561945316
-7.9393131043681215,-1.2670660085990957
-7.952650883627875,-1.2678264160873232
-7.965988662887629,-1.2675776951833146
-7.979326442147382,-1.269140775932034
-7.992664221407136,-1.2670943421242007
-8.00600200066689,-1.2693027477176786
-8.019339779926643,-1.2672726518428892
-8.032677559186396,-1.2631821275474273
-8.04601533844615,-1.2633920816867052
-8.059353117705903,-1.2660404811512818
-8.072690896965657,-1.2657561173353562
-8.086028676225407,-1.2646095395377994
-8.09936645548516,-1.264204313853292
-8.112704234744914,-1.2653140302255355
-8.126042014004668,-1.264165203406708
-8.139379793264421,-1.2647490507394998
-8.152717572524175,-1.2635849794627512
-8.166055351783928,-1.2645822681779184
-8.179393131043682,-1.265763520481086
-8.192730910303435,-1.266859679231273
-8.206068689563189,-1.2663575826431326
-8.219406468822942,-1.2679296911357698
-8.232744248082696,-1.2691012909234882
-8.246082027342446,-1.2689029578683617
-8.2594198066022,-1.2673469060120026
-8.272757585861953,-1.265654997857836
-8.286095365121707,-1.2616548150891043
-8.29943314438146,-1.2602985332944285
-8.312770923641214,-1.2613392124323628
-8.326108702900967,-1.2584039187399916
-8.33944648216072,-1.2554245789880647
-8.352784261420474,-1.2536668827122988
-8.366122040680228,-1.253339222176297
-8.379459819939981,-1.253888019893198
-8.392797599199735,-1.2535057540687535
-8.406135378459485,-1.2530796610857466
-8.419473157719239,-1.2528256609328026
-8.432810936978992,-1.252211543413847
-8.446148716238746,-1.2508721931915243
-8.4594864954985,-1.2518662643553446
-8.472824274758253,-1.2518641089784457
-8.486162054018006,-1.2537608171070747
-8.49949983327776,-1.2541939700486229
-8.512837612537513,-1.2549461931231338
-8.526175391797267,-1.2511243196706252
-8.53951317105702,-1.250276725661584
-8.552850950316774,-1.2509681896337275
-8.566188729576524,-1.2547872823070954
-8.579526508836278,-1.2553425776650704
-8.592864288096031,-1.2574298711278742
-8.606202067355785,-1.261924371666744
-8.619539846615538,-1.2644221701438354
-8.632877625875292,-1.2668886363213965
-8.646215405135045,-1.2682373581877293
-8.659553184394799,-1.2674452749689684
-8.672890963654552,-1.2677275772963548
-8.686228742914306,-1.2659323948932117
-8.69956652217406,-1.2620511995840027
-8.712904301433813,-1.2604350449089345
-8.726242080693563,-1.2596349645818052
-8.739579859953317,-1.257786770443897
-8.75291763921307,-1.2541149042419724
-8.766255418472824,-1.2516471882470865
-8.779593197732577,-1.249012659055841
-8.79293097699233,-1.245329859643153
-8.806268756252084,-1.2447932762161353
-8.819606535511838,-1.246409461818017
-8.832944314771591,-1.2471676202940833
-8.846282094031345,-1.242859551280156
-8.859619873291098,-1.2432222613986559
-8.872957652550852,-1.2433329396641768
-8.886295431810602,-1.2424668211337084
-8.899633211070356,-1.2411908222660677
-8.912970990330109,-1.2394205368707771
-8.926308769589863,-1.2396533886511545
-8.939646548849616,-1.238259589619807
-8.95298432810937,-1.2353463503061548
-8.966322107369123,-1.2375127395410708
-8.979659886628877,-1.2372251265587615
-8.99299766588863,-1.238824912318857
-9.006335445148384,-1.238887201588189
-9.019673224408137,-1.2399040458792847
-9.033011003667891,-1.2425628794459338
-9.046348782927641,-1.2424715072477475
-9.059686562187395,-1.2427050148217418
-9.073024341447148,-1.2428869474832154
-9.086362120706902,-1.2439088523932433
-9.099699899966655,-1.2435345530791537
-9.113037679226409,-1.2442505390385956
-9.126375458486162,-1.2443273854319927
-9.139713237745916,-1.242851710328411
-9.15305101700567,-1.2429192163403517
-9.166388796265423,-1.2410269133434535
-9.179726575525176,-1.2411261581685873
-9.19306435478493,-1.2389194397555146
-9.20640213404468,-1.2378748248478164
-9.219739913304434,-1.2375169565638018
-9.233077692564187,-1.2400412453447989
-9.24641547182394,-1.2387346018705698
-9.259753251083694,-1.2389470551190827
-9.273091030343448,-1.239115305628589
-9.286428809603201,-1.2399983244590733
-9.299766588862955,-1.2395341520727168
-9.313104368122708,-1.238257559776006
-9.326442147382462,-1.2388460613458485
-9.339779926642215,-1.2384623589485262
-9.353117705901969,-1.2377991974173952
-9.366455485161719,-1.237410121874593
-9.379793264421473,-1.238144163816739
-9.393131043681226,-1.2352791566445358
-9.40646882294098,-1.2316614892383535
-9.419806602200733,-1.2307077468256415
-9.433144381460487,-1.2276743330403543
-9.44648216072024,-1.22620806079378
-9.459819939979994,-1.226336419845194
-9.473157719239747,-1.2279282084881513
-9.486495498499501,-1.2248676167401886
-9.499833277759254,-1.2265551514636484
-9.513171057019008,-1.2220464686795067
-9.526508836278758,-1.2209339095623781
-9.539846615538512,-1.2230581894032504
-9.553184394798265,-1.2211386152761672
-9.566522174058019,-1.2182988488408648
-9.579859953317772,-1.2200478606415799
-9.593197732577526,-1.2202041155027847
-9.60653551183728,-1.217465624378219
-9.619873291097033,-1.2160905997494411
-9.633211070356786,-1.2173393581008984
-9.64654884961654,-1.22025275366291
-9.659886628876293,-1.2203626818736555
-9.673224408136047,-1.219284641431424
-9.686562187395797,-1.2234853442938756
-9.69989996665555,-1.2262251476073014
-9.713237745915304,-1.229283583600622
-9.726575525175058,-1.231613943895506
-9.739913304434811,-1.2287740209321085
-9.753251083694565,-1.2274608484130618
-9.766588862954318,-1.2284145596852247
-9.779926642214072,-1.2237869205808374
-9.793264421473825,-1.2246743748174773
-9.806602200733579,-1.2257757814575743
-9.819939979993332,-1.2192827982094046
-9.833277759253086,-1.2167481380408125
-9.846615538512836,-1.2158595902281477
-9.85995331777259,-1.2133873759805314
-9.873291097032343,-1.210808732225702
-9.886628876292097,-1.2081447445650795
-9.89996665555185,-1.209729035820888
-9.913304434811604,-1.2101906159626368
-9.926642214071357,-1.2107638735807045
-9.93997999333111,-1.2088611993505196
-9.953317772590864,-1.209829655224908
-9.966655551850618,-1.208961974699568
-9.979993331110371,-1.2073456323903944
-9.993331110370125,-1.2055490129893498
-9.993331110370125,-1.2052550275075404
-9.979993331110371,-1.2073175492158947
-9.966655551850618,-1.2078866834188262
-9.953317772590864,-1.2058879197597974
-9.93997999333111,-1.2068168900537029
-9.926642214071357,-1.209089302812187
-9.913304434811604,-1.205493065236031
-9.89996665555185,-1.208832522684413
-9.886628876292097,-1.2094362379024324
-9.873291097032343,-1.210172248424733
-9.85995331777259,-1.211640364014352
-9.846615538512836,-1.2082705426468008
-9.833277759253086,-1.2097082630824394
-9.819939979993332,-1.2117839359235822
-9.806602200733579,-1.2119520926983611
-9.793264421473825,-1.2114925118859157
-9.779926642214072,-1.2104604546389148
-9.766588862954318,-1.2097669600825043
-9.753251083694565,-1.2094971218799673
-9.739913304434811,-1.2061150242901661
-9.726575525175058,-1.2086807041455303
-9.713237745915304,-1.2075958849592634
-9.69989996665555,-1.2055971837488413
-9.686562187395797,-1.2036798898254948
-9.673224408136047,-1.2040041454604018
-9.659886628876293,-1.2043242774678422
-9.64654884961654,-1.201675940273273
-9.633211070356786,-1.2030063563664266
-9.619873291097033,-1.1991301905969123
-9.60653551183728,-1.1975781372717833
-9.593197732577526,-1.1973596863266882
-9.579859953317772,-1.194592455257174
-9.566522174058019,-1.1982774730171895
-9.553184394798265,-1.198788097455558
-9.539846615538512,-1.1990490951208292
-9.526508836278758,-1.2011874011136499
-9.513171057019008,-1.2003835412450503
-9.499833277759254,-1.2018173877655078
-9.486495498499501,-1.2054419588645757
-9.473157719239747,-1.2018749293994517
-9.459819939979994,-1.2069655230550835
-9.44648216072024,-1.20453435630075
-9.433144381460487,-1.203155708118913
-9.419806602200733,-1.2047082300510792
-9.40646882294098,-1.2072567287578764
-9.393131043681226,-1.2040475669828405
-9.379793264421473,-1.2021149035440832
-9.366455485161719,-1.1997364048462955
-9.353117705901965,-1.1978255773976116
-9.339779926642215,-1.1966069013801197
-9.326442147382462,-1.197665729853295
-9.313104368122708,-1.194827244197902
-9.299766588862955,-1.195033387342594
-9.286428809603201,-1.1940059844588873
-9.273091030343448,-1.1946134167640898
-9.259753251083694,-1.1928498160303145
-9.24641547182394,-1.1926547942447745
-9.233077692564187,-1.19239064129138
-9.219739913304434,-1.1895098277443155
-9.20640213404468,-1.1850543755737157
-9.193064354784926,-1.1855906780929355
-9.179726575525176,-1.1814220887273035
-9.166388796265423,-1.1807418081520789
-9.15305101700567,-1.1820648209041649
-9.139713237745916,-1.181778207550176
-9.126375458486162,-1.1815986487145311
-9.113037679226409,-1.1833743384869468
-9.099699899966655,-1.184623066080629
-9.086362120706902,-1.1859691015723006
-9.073024341447148,-1.1862481863646073
-9.059686562187395,-1.1869355890177644
-9.046348782927641,-1.184299591486658
-9.033011003667887,-1.1883672491335788
-9.019673224408137,-1.1892389592721218
-9.006335445148384,-1.1887782537369893
-8.99299766588863,-1.1908486783335621
-8.979659886628877,-1.1918549329425767
-8.966322107369123,-1.1903898787885656
-8.95298432810937,-1.1865197417364617
-8.939646548849616,-1.1829857938048123
-8.926308769589863,-1.1792912481807962
-8.912970990330109,-1.1749692464767627
-8.899633211070356,-1.1739332531925144
-8.886295431810602,-1.1726350127742358
-8.872957652550848,-1.1719905626839686
-8.859619873291098,-1.1729423062505213
-8.846282094031345,-1.1707354942097314
-8.832944314771591,-1.1698599101819813
-8.819606535511838,-1.169765975863609
-8.806268756252084,-1.1694935136060602
-8.79293097699233,-1.1673590184903755
-8.779593197732577,-1.170632812700774
-8.766255418472824,-1.172204827397986
-8.75291763921307,-1.1738707451693047
-8.739579859953317,-1.1775671960867844
-8.726242080693563,-1.1800950774648544
-8.71290430143381,-1.1826339236077252
-8.69956652217406,-1.1830418046386117
-8.686228742914306,-1.1809612272330352
-8.672890963654552,-1.1787131182622574
-8.659553184394799,-1.1759141178891397
-8.646215405135045,-1.1701117552903417
-8.632877625875292,-1.1690046006250459
-8.619539846615538,-1.1683111686095298
-8.606202067355785,-1.1695582405538525
-8.592864288096031,-1.1697290838876389
-8.579526508836278,-1.1708189008477117
-8.566188729576524,-1.1722579017318788
-8.55285095031677,-1.1726076165087322
-8.53951317105702,-1.1715721231168899
-8.526175391797267,-1.1715083028876423
-8.512837612537513,-1.1749030528129112
-8.49949983327776,-1.1735978460034788
-8.486162054018006,-1.1729493661557289
-8.472824274758253,-1.1727526263532808
-8.4594864954985,-1.173787182650043
-8.446148716238746,-1.174300743434814
-8.432810936978992,-1.173595409358585
-8.419473157719239,-1.1709588490428058
-8.406135378459485,-1.1687965205990085
-8.392797599199731,-1.1644823594482143
-8.379459819939981,-1.161313557625465
-8.366122040680228,-1.1642812453368827
-8.352784261420474,-1.1650478689393613
-8.33944648216072,-1.1680087158219674
-8.326108702900967,-1.1669992439434111
-8.312770923641214,-1.167905660040992
-8.29943314438146,-1.1685790683284007
-8.286095365121707,-1.166859014669607
-8.272757585861953,-1.167196547109136
-8.2594198066022,-1.165415984609422
-8.246082027342446,-1.1630155878432595
-8.232744248082692,-1.1600495866162241
-8.219406468822942,-1.1575013382753565
-8.206068689563189,-1.1574024684963224
-8.192730910303435,-1.1582772711840021
-8.179393131043682,-1.155200029591886
-8.166055351783928,-1.1560385954386256
-8.152717572524175,-1.1525330742680593
-8.139379793264421,-1.1524732213849165
-8.126042014004668,-1.151104038093679
-8.112704234744914,-1.1505548027279893
-8.09936645548516,-1.1536401972557768
-8.086028676225407,-1.155280155752601
-8.072690896965653,-1.1593594657572877
-8.059353117705903,-1.1590499545397819
-8.04601533844615,-1.1622265343887501
-8.032677559186396,-1.163001374244859
-8.019339779926643,-1.164982050905377
-8.00600200066689,-1.168282116531806
-7.992664221407136,-1.1655479048656605
-7.979326442147382,-1.168786180592053
-7.965988662887629,-1.1734179119806107
-7.952650883627875,-1.1776629733376651
-7.9393131043681215,-1.1784458722976328
-7.925975325108368,-1.1804472288657986
-7.9126375458486145,-1.1782960525512878
-7.8992997665888645,-1.1799542544679258
-7.885961987329111,-1.178106935041035
-7.872624208069357,-1.1787274251372621
-7.859286428809604,-1.1774616101567563
-7.84594864954985,-1.1770804068729621
-7.832610870290097,-1.1773248796295839
-7.819273091030343,-1.173248912376741
-7.80593531177059,-1.170086545823516
-7.792597532510836,-1.167284484101424
-7.7792597532510825,-1.16596337713829
-7.765921973991329,-1.1619846864743015
-7.7525841947315755,-1.1598803050679551
-7.7392464154718255,-1.157280856282053
-7.725908636212072,-1.152867325646515
-7.712570856952318,-1.155701781317458
-7.699233077692565,-1.1563300498447386
-7.685895298432811,-1.157288759153988
-7.672557519173058,-1.1572606132682282
-7.659219739913304,-1.157881009669178
-7.645881960653551,-1.1584905975455326
-7.632544181393797,-1.1599726765171945
-7.6192064021340435,-1.158343213944897
-7.60586862287429,-1.1590667287650656
-7.5925308436145365,-1.1574878416596663
-7.5791930643547865,-1.1568789724095465
-7.565855285095033,-1.1523485164616103
-7.552517505835279,-1.1488836052094182
-7.539179726575526,-1.1484245243119604
-7.525841947315772,-1.1482747669600417
-7.512504168056019,-1.1488703285660327
-7.499166388796265,-1.1474720935209881
-7.485828609536512,-1.1463454146903653
-7.472490830276758,-1.1462715982647518
-7.4591530510170045,-1.1468803115510975
-7.445815271757251,-1.149223136346467
-7.4324774924974975,-1.1501775972506978
-7.4191397132377475,-1.1514844597406604
-7.405801933977994,-1.1528143136445164
-7.39246415471824,-1.1510022623341363
-7.379126375458487,-1.1522500215196785
-7.365788596198733,-1.1523626989934985
-7.35245081693898,-1.15286032854074
-7.339113037679226,-1.1514764010121428
-7.325775258419473,-1.1493087618574744
-7.312437479159719,-1.1460386226183175
-7.2990996998999655,-1.1418914625682144
-7.285761920640212,-1.1406499823058605
-7.2724241413804585,-1.1397060174388323
-7.2590863621207085,-1.140073444405449
-7.245748582860955,-1.1415348748297205
-7.232410803601201,-1.139699551131212
-7.219073024341448,-1.1375475000927544
-7.205735245081694,-1.1382463365257618
-7.192397465821941,-1.1392205400764193
-7.179059686562187,-1.1392718338131855
-7.165721907302434,-1.1368821825011626
-7.15238412804268,-1.1376682367783215
-7.1390463487829265,-1.137592295696631
-7.125708569523173,-1.1382324348057185
-7.1123707902634195,-1.1453438153745163
-7.0990330110036695,-1.146875407488912
-7.085695231743916,-1.1458806489957567
-7.072357452484162,-1.1447363513046807
-7.059019673224409,-1.1420966985433023
-7.045681893964655,-1.141185784097176
-7.032344114704902,-1.1421827607640889
-7.019006335445148,-1.141959374450144
-7.005668556185395,-1.1457970234588817
-6.992330776925641,-1.1489443954078347
-6.9789929976658875,-1.1500345565772574
-6.965655218406134,-1.1475303540308686
-6.9523174391463805,-1.1454738615794728
-6.9389796598866305,-1.1445774730999407
-6.925641880626877,-1.1451840623246003
-6.912304101367123,-1.144414564765412
-6.89896632210737,-1.1394656690583895
-6.885628542847616,-1.1403805196198298
-6.872290763587863,-1.1393952886576724
-6.858952984328109,-1.1400846599008743
-6.845615205068356,-1.1417605740383083
-6.832277425808602,-1.135407507781552
-6.8189396465488485,-1.13163655315708
-6.805601867289095,-1.1293246859903683
-6.7922640880293415,-1.126354186546704
-6.7789263087695915,-1.128347920979953
-6.765588529509838,-1.1305120610695694
-6.752250750250084,-1.1317686290580322
-6.738912970990331,-1.1349060045370374
-6.725575191730577,-1.138015796384072
-6.712237412470824,-1.1393830112664622
-6.69889963321107,-1.1379286407610725
-6.685561853951317,-1.1412759079011474
-6.672224074691563,-1.142860543066348
-6.6588862954318095,-1.1473976532626702
-6.645548516172056,-1.146168606233072
-6.6322107369123025,-1.1444050999281612
-6.6188729576525525,-1.1467609196129427
-6.605535178392799,-1.1449311249394571
-6.592197399133045,-1.1455701083917873
-6.578859619873292,-1.1442930164126006
-6.565521840613538,-1.1400848788792743
-6.552184061353785,-1.1376751729328314
-6.538846282094031,-1.1355970008540266
-6.525508502834278,-1.1362770314136927
-6.512170723574524,-1.1369468471749922
-6.4988329443147705,-1.138929741570803
-6.485495165055017,-1.1363252007736295
-6.4721573857952635,-1.1368355127133456
-6.4588196065355135,-1.139556916171645
-6.44548182727576,-1.1388376808511713
-6.432144048016006,-1.138651343456489
-6.418806268756253,-1.1386154816590492
-6.405468489496499,-1.1366996562051368
-6.392130710236746,-1.1358754286533723
-6.378792930976992,-1.1344840974426154
-6.365455151717239,-1.1356810003045827
-6.352117372457485,-1.1367911849542331
-6.3387795931977315,-1.1345257695161162
-6.325441813937978,-1.1353890451977762
-6.3121040346782245,-1.1327450191546233
-6.2987662554184745,-1.1298694220872907
-6.285428476158721,-1.127378370969769
-6.272090696898967,-1.1266158082197189
-6.258752917639214,-1.12776076151004
-6.24541513837946,-1.128332269694985
-6.232077359119707,-1.129064812385087
-6.218739579859953,-1.1279283871052574
-6.2054018006002,-1.1292023866967653
-6.192064021340446,-1.1306697834292785
-6.1787262420806925,-1.1300667245446527
-6.165388462820939,-1.1303727368924326
-6.1520506835611855,-1.1302920478831737
-6.1387129043014355,-1.1316579200171493
-6.125375125041682,-1.1332899749671939
-6.112037345781928,-1.1356867169145821
-6.098699566522175,-1.1371935991936362
-6.085361787262421,-1.136006536394326
-6.072024008002668,-1.132655739355256
-6.058686228742914,-1.1317139921480899
-6.045348449483161,-1.129749746792216
-6.032010670223407,-1.1279912694847758
-6.0186728909636535,-1.1256595036556762
-6.0053351117039,-1.125915627941168
-5.9919973324441465,-1.1264946333869514
-5.978659553184393,-1.1274397853813065
-5.965321773924643,-1.1267216125843504
-5.951983994664889,-1.1270374024691394
-5.938646215405136,-1.1268581250113303
-5.925308436145382,-1.1279501601829989
-5.911970656885629,-1.1265160949214719
-5.898632877625875,-1.1269364399296957
-5.885295098366122,-1.1270503357048152
-5.871957319106368,-1.1278814983527217
-5.8586195398466145,-1.1265989081947714
-5.845281760586861,-1.1248789792380847
-5.8319439813271075,-1.1247976653937377
-5.818606202067354,-1.1203424003650113
-5.805268422807604,-1.11922743598345
-5.79193064354785,-1.1210916554335206
-5.778592864288097,-1.1210348014276563
-5.765255085028343,-1.117468084058022
-5.75191730576859,-1.115482971687573
-5.738579526508836,-1.117358187096782
-5.725241747249083,-1.1160660695500206
-5.711903967989329,-1.117275686406963
-5.6985661887295755,-1.117847850578824
-5.685228409469822,-1.1169921656301536
-5.6718906302100685,-1.1160034363111864
-5.658552850950315,-1.116366271419421
-5.645215071690565,-1.1166541965693493
-5.631877292430811,-1.117146109289861
-5.618539513171058,-1.1195151118404651
-5.605201733911304,-1.121076723977461
-5.591863954651551,-1.1216357370468124
-5.578526175391797,-1.121939125245916
-5.565188396132044,-1.123346044516084
-5.55185061687229,-1.121647607497735
-5.5385128376125365,-1.1226287147412852
-5.525175058352783,-1.1228803721846246
-5.5118372790930295,-1.120621610468893
-5.498499499833276,-1.1167464441135093
-5.485161720573526,-1.1163256615361044
-5.471823941313772,-1.1136026022762926
-5.458486162054019,-1.1117307914845371
-5.445148382794265,-1.1096766731429324
-5.431810603534512,-1.1074352487865935
-5.418472824274758,-1.1050385378925072
-5.405135045015005,-1.1037191179801575
-5.391797265755251,-1.1026225845155229
-5.3784594864954975,-1.1025180291964698
-5.365121707235744,-1.1036587028231788
-5.3517839279759905,-1.1065505749158326
-5.338446148716237,-1.1089552826354077
-5.325108369456487,-1.1099423565186302
-5.311770590196733,-1.1113754221385097
-5.29843281093698,-1.1115291466569843
-5.285095031677226,-1.1123274151423574
-5.271757252417473,-1.1140874231602613
-5.258419473157719,-1.1140628074
-5.245081693897966,-1.1127248939630088
-5.231743914638212,-1.1099044952585224
-5.2184061353784585,-1.1068912927355443
-5.205068356118705,-1.1042559509321883
-5.1917305768589515,-1.1028843622975955
-5.178392797599198,-1.096755776392051
-5.165055018339448,-1.0948986479082983
-5.151717239079694,-1.0930122179225208
-5.138379459819941,-1.0921813367608375
-5.125041680560187,-1.0909459793463705
-5.111703901300434,-1.092783583756439
-5.09836612204068,-1.0942172745658236
-5.085028342780927,-1.096301600682835
-5.071690563521173,-1.09728667509301
-5.0583527842614195,-1.0966898637356939
-5.045015005001666,-1.0990204425676682
-5.0316772257419125,-1.100645531666231
-5.018339446482159,-1.1038329201496566
-5.005001667222409,-1.103474145979668
-4.991663887962655,-1.1025803811827013
-4.978326108702902,-1.1011794284977252
-4.964988329443148,-1.1009812199777325
-4.951650550183395,-1.1019005683992682
-4.938312770923641,-1.1013027880925965
-4.924974991663888,-1.0997236821597705
-4.911637212404134,-1.1008018475557586
-4.8982994331443805,-1.102436995070115
-4.884961653884627,-1.1045982613942706
-4.8716238746248735,-1.1059334884102716
-4.85828609536512,-1.1029134759869936
-4.84494831610537,-1.1031362066168677
-4.831610536845616,-1.1011002379263788
-4.818272757585863,-1.0995068874789256
-4.804934978326109,-1.097057664568932
-4.791597199066356,-1.09613531715459
-4.778259419806602,-1.0956722688924723
-4.764921640546849,-1.0963189374611002
-4.751583861287095,-1.0955460036518319
-4.7382460820273415,-1.0926594421703952
-4.724908302767588,-1.0926345449492638
-4.7115705235078345,-1.0906474644972524
-4.698232744248081,-1.0889966974298986
-4.684894964988331,-1.0894999181165923
-4.671557185728577,-1.0885934708005076
-4.658219406468824,-1.0890655784006091
-4.64488162720907,-1.0920555708852449
-4.631543847949317,-1.0900921377190522
-4.618206068689563,-1.0897078730793124
-4.60486828942981,-1.0880482034655619
-4.591530510170056,-1.086958698812412
-4.5781927309103025,-1.0884971011072613
-4.564854951650549,-1.0855279448642339
-4.5515171723907955,-1.0831645027359915
-4.538179393131042,-1.0838649321864253
-4.524841613871292,-1.0833642727002428
-4.511503834611538,-1.0832442539956695
-4.498166055351785,-1.0816136045759017
-4.484828276092031,-1.079942969508639
-4.471490496832278,-1.0784568916328254
-4.458152717572524,-1.076662021088626
-4.444814938312771,-1.0749759543843902
-4.431477159053017,-1.072062402448549
-4.4181393797932635,-1.071078858327448
-4.40480160053351,-1.0700286202510445
-4.3914638212737565,-1.069605245082578
-4.378126042014003,-1.0704761744650535
-4.364788262754253,-1.070927414612921
-4.351450483494499,-1.0734430508868322
-4.338112704234746,-1.0761550209364186
-4.324774924974992,-1.0782706169980323
-4.311437145715239,-1.0771369099489476
-4.298099366455485,-1.0759420687847998
-4.284761587195732,-1.078921346268627
-4.271423807935978,-1.082497685281323
-4.2580860286762245,-1.0806975669332308
-4.244748249416471,-1.080601195968968
-4.2314104701567175,-1.0770999229828986
-4.218072690896964,-1.0786667832303025
-4.204734911637214,-1.0802172744779175
-4.19139713237746,-1.0806804161631145
-4.178059353117707,-1.0783224409207337
-4.164721573857953,-1.0789656413214153
-4.1513837945982,-1.0760685835707637
-4.138046015338446,-1.0739709814410512
-4.124708236078693,-1.07067222798864
-4.111370456818939,-1.066971528867326
-4.0980326775591855,-1.0633319320222814
-4.084694898299432,-1.060373740692771
-4.0713571190396785,-1.0579337647581346
-4.058019339779925,-1.0537216291953149
-4.044681560520175,-1.0517266454944454
-4.031343781260421,-1.0529137396044708
-4.018006002000668,-1.0546966765248174
-4.004668222740914,-1.0555941273032063
-3.9913304434811607,-1.0529858692624698
-3.977992664221407,-1.0542575881632177
-3.9646548849616536,-1.0558835516565992
-3.9513171057019,-1.057576334390942
-3.9379793264421465,-1.0604307201054113
-3.924641547182393,-1.063355174020854
-3.9113037679226395,-1.0609999164366435
-3.897965988662886,-1.0625546560210317
-3.884628209403136,-1.0590280800711747
-3.8712904301433824,-1.0578252105852333
-3.857952650883629,-1.054300165140717
-3.8446148716238753,-1.0501251405394907
-3.8312770923641217,-1.0467216754550566
-3.817939313104368,-1.0449193707388933
-3.8046015338446146,-1.0444243658072117
-3.791263754584861,-1.0442303747050472
-3.7779259753251075,-1.0421193710679557
-3.764588196065354,-1.0408299086459794
-3.7512504168056005,-1.041572197432924
-3.737912637545847,-1.0382559502862676
-3.724574858286097,-1.0342155633541819
-3.7112370790263434,-1.0364589247311957
-3.69789929976659,-1.035763149821255
-3.6845615205068363,-1.033408673518401
-3.6712237412470827,-1.031926125849151
-3.657885961987329,-1.030212413544544
-3.6445481827275756,-1.0259856581057931
-3.631210403467822,-1.0237372364926944
-3.6178726242080685,-1.0215582891482309
-3.604534844948315,-1.022778089864686
-3.5911970656885615,-1.0212835782956058
-3.577859286428808,-1.0162558366593402
-3.564521507169058,-1.0154079925746367
-3.5511837279093044,-1.017643950322033
-3.537845948649551,-1.0206599329904824
-3.5245081693897973,-1.0189617458335818
-3.5111703901300437,-1.0150314748017903
-3.49783261087029,-1.0114326440401111
-3.4844948316105366,-1.0113628568792679
-3.471157052350783,-1.00919546750548
-3.4578192730910295,-1.0072736751989466
-3.444481493831276,-1.0081525079126084
-3.4311437145715225,-1.0056699535306868
-3.417805935311769,-1.0023942226865303
-3.404468156052019,-0.997792167626722
-3.3911303767922654,-0.9971336914197022
-3.377792597532512,-0.9937436901157699
-3.3644548182727583,-0.9899326564796613
-3.3511170390130047,-0.9876102308725153
-3.337779259753251,-0.9867974055372186
-3.3244414804934976,-0.9857909328274952
-3.311103701233744,-0.9799081622394463
-3.2977659219739905,-0.9818697836000578
-3.284428142714237,-0.9787578365660792
-3.2710903634544835,-0.9767377680706331
-3.25775258419473,-0.9716492051430488
-3.24441480493498,-0.9700845627697849
-3.2310770256752264,-0.9680820815325183
-3.217739246415473,-0.9698985062638104
-3.2044014671557193,-0.967293684478777
-3.1910636878959657,-0.9669353476818684
-3.177725908636212,-0.9689732219150996
-3.1643881293764586,-0.9705293362494598
-3.151050350116705,-0.9722627913961568
-3.1377125708569515,-0.9747806135268454
-3.124374791597198,-0.9760527386221699
-3.1110370123374445,-0.9751892752653725
-3.097699233077691,-0.9792277874559071
-3.084361453817941,-0.9801227077723323
-3.0710236745581874,-0.9817347391983338
-3.057685895298434,-0.9836590304644606
-3.0443481160386803,-0.9806487646463453
-3.0310103367789267,-0.9762153666430815
-3.017672557519173,-0.9691320694006916
-3.0043347782594196,-0.9687035709089875
-2.990996998999666,-0.9640474423753561
-2.9776592197399125,-0.9606093961934983
-2.964321440480159,-0.9571337699802529
-2.9509836612204055,-0.9509064390579469
-2.937645881960652,-0.946789143068604
-2.924308102700902,-0.9445813624289983
-2.9109703234411484,-0.942553827955169
-2.897632544181395,-0.9389558097674886
-2.8842947649216413,-0.9382000880794372
-2.8709569856618877,-0.9364911549304186
-2.857619206402134,-0.9342766583263608
-2.8442814271423806,-0.9342487623620291
-2.830943647882627,-0.9357695770300964
-2.8176058686228735,-0.9339184465055911
-2.80426808936312,-0.9322536536415126
-2.7909303101033665,-0.9312278124959332
-2.777592530843613,-0.9298058988018296
-2.764254751583863,-0.9255763629462965
-2.7509169723241094,-0.9235462355750377
-2.737579193064356,-0.9240557356072198
-2.7242414138046023,-0.9216917312482289
-2.7109036345448487,-0.9218326790202859
-2.697565855285095,-0.9198148909965407
-2.6842280760253416,-0.9143781125255277
-2.670890296765588,-0.9129582918043304
-2.6575525175058345,-0.9074935861622371
-2.644214738246081,-0.903184392507784
-2.6308769589863275,-0.8979668457721608
-2.617539179726574,-0.8927497677084875
-2.6042014004668204,-0.8909341242675568
-2.5908636212070704,-0.8850078386257424
-2.577525841947317,-0.8821122490498405
-2.5641880626875633,-0.8769116020155117
-2.5508502834278097,-0.8748328052299698
-2.537512504168056,-0.8691558025173538
-2.5241747249083026,-0.8667575920695197
-2.510836945648549,-0.8649756859014477
-2.4974991663887955,-0.8627092082616726
-2.484161387129042,-0.8609471073152365
-2.4708236078692885,-0.8628636203039777
-2.457485828609535,-0.8607787004680209
-2.4441480493497814,-0.860616697720705
-2.4308102700900314,-0.8567777682583442
-2.417472490830278,-0.853450150186835
-2.4041347115705243,-0.8494602451467536
-2.3907969323107707,-0.8435522650590358
-2.377459153051017,-0.8420286701615869
-2.3641213737912636,-0.8395089107255568
-2.35078359453151,-0.8345303697252832
-2.3374458152717565,-0.8335895289026383
-2.324108036012003,-0.8278850989235284
-2.3107702567522495,-0.8245642597532861
-2.297432477492496,-0.820559109976309
-2.2840946982327424,-0.8182672668062444
-2.2707569189729924,-0.8130396611092665
-2.257419139713239,-0.8090762147743537
-2.2440813604534853,-0.8054421782755882
-2.2307435811937317,-0.7995583455450618
-2.217405801933978,-0.7966394833655926
-2.2040680226742246,-0.7889843347699146
-2.190730243414471,-0.7821959287995388
-2.1773924641547175,-0.7789810506940869
-2.164054684894964,-0.7770924963556463
-2.1507169056352105,-0.7744349752578971
-2.137379126375457,-0.7696385857492735
-2.1240413471157034,-0.7684983182893071
-2.1107035678559534,-0.7660992957565259
-2.0973657885962,-0.761856733704158
-2.0840280093364463,-0.7565302584241284
-2.0706902300766927,-0.7540134671103013
-2.057352450816939,-0.7510015453294849
-2.0440146715571856,-0.7475689035009073
-2.030676892297432,-0.7461312769369075
-2.0173391130376785,-0.7428132804818137
-2.004001333777925,-0.739035422005277
-1.9906635545181715,-0.7351881203930314
-1.977325775258418,-0.7343712337609807
-1.9639879959986644,-0.7258752070787967
-1.9506502167389144,-0.7231175043700417
-1.9373124374791608,-0.713741645547281
-1.9239746582194073,-0.7105612543237788
-1.9106368789596537,-0.7109387402428093
-1.8972990996999002,-0.707716802093136
-1.8839613204401466,-0.7035345926342871
-1.870623541180393,-0.6974684833379496
-1.8572857619206395,-0.693055358868377
-1.843947982660886,-0.6878735174707651
-1.8306102034011325,-0.6813570742397715
-1.817272424141379,-0.6766789225928673
-1.8039346448816254,-0.6729905626803387
-1.7905968656218754,-0.6657322049701562
-1.7772590863621218,-0.6627185338583725
-1.7639213071023683,-0.6589390199935002
-1.7505835278426147,-0.655657728656106
-1.7372457485828612,-0.6534018095847071
-1.7239079693231076,-0.6484856829738799
-1.710570190063354,-0.645927812665132
-1.6972324108036005,-0.6374961373636139
-1.683894631543847,-0.6358970702162551
-1.6705568522840935,-0.6291021669447442
-1.65721907302434,-0.624709878728977
-1.6438812937645864,-0.6208817264347188
-1.6305435145048364,-0.61301287513184
-1.6172057352450828,-0.6098044633324121
-1.6038679559853293,-0.605369440876329
-1.5905301767255757,-0.5977822668801935
-1.5771923974658222,-0.5938159154799444
-1.5638546182060686,-0.5868723793961469
-1.550516838946315,-0.5810200353124884
-1.5371790596865615,-0.5721116918948194
-1.523841280426808,-0.5648634867436366
-1.5105035011670545,-0.5580899505920887
-1.497165721907301,-0.552331384264533
-1.4838279426475474,-0.5447678578476265
-1.4704901633877974,-0.5405767765777761
-1.4571523841280438,-0.5337452618509453
-1.4438146048682903,-0.5287625348028909
-1.4304768256085367,-0.5258797530523397
-1.4171390463487832,-0.5187611877494867
-1.4038012670890296,-0.5114395410270723
-1.390463487829276,-0.5055215335510465
-1.3771257085695225,-0.5007252064587412
-1.363787929309769,-0.49659913270517964
-1.3504501500500155,-0.49142713163922613
-1.337112370790262,-0.48608881696981476
-1.3237745915305084,-0.48222399046605124
-1.3104368122707584,-0.4791824231369306
-1.2970990330110048,-0.4717087074157302
-1.2837612537512513,-0.4634227285033788
-1.2704234744914977,-0.456864175761246
-1.2570856952317442,-0.4481305491124834
-1.2437479159719906,-0.44194607736483865
-1.230410136712237,-0.4370913032990328
-1.2170723574524835,-0.43016035657704743
-1.20373457819273,-0.42593344488084406
-1.1903967989329765,-0.42093647316134075
-1.177059019673223,-0.414569037512982
-1.1637212404134694,-0.40954101466090953
-1.1503834611537194,-0.3996850202926242
-1.1370456818939658,-0.39581678899044515
-1.1237079026342123,-0.39080529125790364
-1.1103701233744587,-0.3861226098521806
-1.0970323441147052,-0.3805091465962609
-1.0836945648549516,-0.37571788021748986
-1.070356785595198,-0.37046544004221305
-1.0570190063354445,-0.36874045050374665
-1.043681227075691,-0.36066189498604107
-1.0303434478159375,-0.3509184218438828
-1.017005668556184,-0.3437753655162158
-1.0036678892964304,-0.33828048341713723
-0.9903301100366804,-0.3278750039351559
-0.9769923307769268,-0.32277353942732084
-0.9636545515171733,-0.3166282405646179
-0.9503167722574197,-0.31090456759152607
-0.9369789929976662,-0.302518718986148
-0.9236412137379126,-0.29280173583060515
-0.9103034344781591,-0.28301537194595283
-0.8969656552184055,-0.2762295589792418
-0.883627875958652,-0.2672337788965687
-0.8702900966988985,-0.26140024021719366
-0.8569523174391449,-0.24922725548958163
-0.8436145381793914,-0.24375361560132108
-0.8302767589196414,-0.23676190984214257
-0.8169389796598878,-0.23083162566257368
-0.8036012004001343,-0.22423902288571834
-0.7902634211403807,-0.218106688194933
-0.7769256418806272,-0.21036628935226193
-0.7635878626208736,-0.20484766614600536
-0.7502500833611201,-0.20117317591661277
-0.7369123041013665,-0.1961452468507467
-0.723574524841613,-0.1862060955686402
-0.7102367455818595,-0.18379404660985382
-0.6968989663221059,-0.17971861027841007
-0.6835611870623524,-0.17295594516007248
-0.6702234078026024,-0.16645237215985434
-0.6568856285428488,-0.15745087544029723
-0.6435478492830953,-0.15217878611222801
-0.6302100700233417,-0.14735143937567635
-0.6168722907635882,-0.1353547960635722
-0.6035345115038346,-0.1281821256095769
-0.5901967322440811,-0.1130607582631124
-0.5768589529843275,-0.10560066256520712
-0.563521173724574,-0.09799458934382414
-0.5501833944648205,-0.08768335645283493
-0.5368456152050669,-0.08163620891818447
-0.5235078359453134,-0.07099672195327672
-0.5101700566855634,-0.06526901933503335
-0.4968322774258098,-0.060245057592445125
-0.4834944981660563,-0.050711663128832137
-0.47015671890630273,-0.04226524327194343
-0.4568189396465492,-0.03313888631322551
-0.44348116038679564,-0.02739800119862769
-0.4301433811270421,-0.02156436888717334
-0.41680560186728854,-0.015566109780551127
-0.403467822607535,-0.012036472452904016
-0.39013004334778145,-0.007990837698696185
-0.3767922640880279,-0.005089156564729132
-0.36345448482827436,-0.0006891211591148543
-0.35011670556852437,0.0060653908100868825
-0.3367789263087708,0.009465950866749067
-0.3234411470490173,0.019706865945565068
-0.31010336778926373,0.02461974365937341
-0.2967655885295102,0.028758125471071903
-0.28342780926975664,0.03793943093630862
-0.2700900300100031,0.041213537331251604
-0.25675225075024954,0.04845418250652554
-0.243414471490496,0.05674394138566821
-0.23007669223074245,0.06690107473211045
-0.2167389129709889,0.07636849360478987
-0.20340113371123536,0.08698467675263853
-0.19006335445148537,0.09690827107728196
-0.17672557519173182,0.10725539697288802
-0.16338779593197827,0.113598310342822
-0.15005001667222473,0.12098624509133894
-0.13671223741247118,0.12623802923696884
-0.12337445815271764,0.13270439727726624
-0.11003667889296409,0.1341184077338506
-0.09669889963321054,0.13985226443657534
-0.083361120373457,0.1461935848200493
-0.07002334111370345,0.15144162039382913
-0.056685561853949906,0.16015719110940388
-0.04334778259419636,0.16657535814029345
-0.030010003334446367,0.17512876991548232
-0.01667222407469282,0.18017687920064526
-0.0033344448149392747,0.18503246556272684
0.010003334444814271,0.19169398044095676
0.023341113704567817,0.1987210169625628
0.036678892964321363,0.20420612141113298
0.05001667222407491,0.2075335207274822
0.06335445148382846,0.2124976607718198
0.076692230743582,0.21653117487746387
0.09003001000333555,0.22016402419215284
0.1033677892630891,0.22265401307149402
0.11670556852284264,0.22605413558788615
0.13004334778259263,0.22897277925109627
0.14338112704234618,0.23095226892984483
0.15671890630209973,0.23100759229844037
0.17005668556185327,0.2410197792809475
0.18339446482160682,0.2536420046224127
0.19673224408136036,0.2627110701940255
0.2100700233411139,0.27291640474158835
0.22340780260086746,0.2807019119717069
0.236745581860621,0.29199859441888126
0.25008336112037455,0.29855436701178467
0.2634211403801281,0.31241757275045834
0.27675891963988164,0.3169588373708446
0.29009669889963163,0.32059699722533985
0.3034344781593852,0.325408131258915
0.3167722574191387,0.32829256869878987
0.33011003667889227,0.32804625314697305
0.3434478159386458,0.3307980519839771
0.35678559519839936,0.33296444141415726
0.3701233744581529,0.33716745558996897
0.38346115371790646,0.3407998987098412
0.39679893297766,0.3407631309849904
0.41013671223741355,0.34638612214318626
0.4234744914971671,0.35151060950385893
0.43681227075692064,0.36595519480581085
0.45015005001667063,0.37935282204523924
0.4634878292764242,0.38703702276573376
0.4768256085361777,0.39561786185356274
0.49016338779593127,0.40345894225884504
0.5035011670556848,0.4131523089581855
0.5168389463154384,0.4197510344705749
0.5301767255751919,0.4246312056256331
0.5435145048349455,0.42239237412426
0.556852284094699,0.4241992711970408
0.5701900633544525,0.42960218726436805
0.5835278426142061,0.4316365316512889
0.5968656218739596,0.4303652187070897
0.6102034011337096,0.4346503590467292
0.6235411803934632,0.4349460002425065
0.6368789596532167,0.4375149289965854
0.6502167389129703,0.43954280709400584
0.6635545181727238,0.4399072666297094
0.6768922974324774,0.4428118840936457
0.6902300766922309,0.4475719118111094
0.7035678559519845,0.45807704205233407
0.716905635211738,0.46680007899234033
0.7302434144714915,0.47379056645881096
0.7435811937312451,0.4783273951892058
0.7569189729909986,0.4784218602296438
0.7702567522507522,0.48183910131708096
0.7835945315105022,0.48096714118244044
0.7969323107702557,0.48116597418527607
0.8102700900300093,0.483210845732595
0.8236078692897628,0.4870108522331452
0.8369456485495164,0.4907574096829616
0.8502834278092699,0.49607654400195034
0.8636212070690235,0.500120866628058
0.876958986328777,0.5077313443419864
0.8902967655885305,0.5072301540580392
0.9036345448482841,0.5093162294968199
0.9169723241080376,0.5117113471448619
0.9303101033677912,0.5160250393369042
0.9436478826275412,0.5179712598187887
0.9569856618872947,0.5272138240709523
0.9703234411470483,0.5375318672703252
0.9836612204068018,0.5413383402382076
0.9969989996665554,0.5437191194025133
1.010336778926309,0.543223989194659
1.0236745581860625,0.5427204245876727
1.037012337445816,0.543273783298201
1.0503501167055695,0.5397894419111529
1.063687895965323,0.5431545148283918
1.0770256752250766,0.5393741573325794
1.0903634544848302,0.5407406541756209
1.1037012337445802,0.5436595476590426
1.1170390130043337,0.5506070195674795
1.1303767922640873,0.5491203482296004
1.1437145715238408,0.5487095307966366
1.1570523507835944,0.5474210367465632
1.170390130043348,0.5486041008180238
1.1837279093031015,0.5536806681506831
1.197065688562855,0.5604401781541244
1.2104034678226085,0.5657774621093796
1.223741247082362,0.5706570397994377
1.2370790263421156,0.5734327360998768
1.2504168056018692,0.5768312966920708
1.2637545848616192,0.5807669094822979
1.2770923641213727,0.580462521576603
1.2904301433811263,0.5851218678875189
1.3037679226408798,0.586915363516202
1.3171057019006334,0.5888172880728442
1.330443481160387,0.5894679858772743
1.3437812604201405,0.5856682918200207
1.357119039679894,0.5892323538955466
1.3704568189396475,0.5910725509007465
1.383794598199401,0.5926237295020927
1.3971323774591546,0.589980140742135
1.4104701567189082,0.5899960410470738
1.4238079359786582,0.5882595867805036
1.4371457152384117,0.5871309712693368
1.4504834944981653,0.5872193762158499
1.4638212737579188,0.5889885682415229
1.4771590530176724,0.588163247434313
1.490496832277426,0.5858487562191713
1.5038346115371795,0.5870832701739035
1.517172390796933,0.592506959772992
1.5305101700566865,0.5889135961884602
1.54384794931644,0.5888732048010706
1.5571857285761936,0.5913059650293319
1.5705235078359472,0.5912252135343751
1.5838612870956972,0.5898522506168153
1.5971990663554507,0.5907103720999343
1.6105368456152043,0.5917176259372747
1.6238746248749578,0.5931218586474954
1.6372124041347114,0.5941293938909786
1.650550183394465,0.5950018848495171
1.6638879626542185,0.5916383736844647
1.677225741913972,0.5917594226339413
1.6905635211737255,0.5895420831701911
1.703901300433479,0.5939716390842876
1.7172390796932326,0.5911152849025565
1.7305768589529862,0.5933858548255625
1.7439146382127362,0.5955009507576605
1.7572524174724897,0.5988258821590722
1.7705901967322433,0.6019032487989356
1.7839279759919968,0.6035775071631052
1.7972657552517504,0.6009648759993712
1.810603534511504,0.5985126853359677
1.8239413137712575,0.5970098327678436
1.837279093031011,0.5968160916405171
1.8506168722907645,0.5936674076980439
1.863954651550518,0.5926651831717491
1.8772924308102716,0.5934589218950329
1.8906302100700252,0.591183822411726
1.9039679893297752,0.5873447365000594
1.9173057685895287,0.5840618518092939
1.9306435478492823,0.5837988238423406
1.9439813271090358,0.5844729505665333
1.9573191063687894,0.5857118380471522
1.970656885628543,0.5857805628186465
1.9839946648882965,0.5814451285595696
1.99733244414805,0.587143092261124
2.0106702234078,0.5894769513845614
2.024008002667557,0.5919246435991163
2.037345781927307,0.5917136589217207
2.050683561187064,0.5894037598102289
2.064021340446814,0.5875760893402767
2.0773591197065713,0.5861180013564052
2.0906968989663213,0.5882452803758128
2.1040346782260784,0.5872033203586318
2.1173724574858284,0.5835912133982472
2.1307102367455855,0.5815118855771718
2.1440480160053355,0.5846949942728256
2.1573857952650854,0.5779824356709667
2.1707235745248425,0.5733425197378087
2.1840613537845925,0.5732652358101618
2.1973991330443496,0.5741502536160505
2.2107369123040996,0.5729944605142954
2.2240746915638567,0.5722262747260957
2.2374124708236067,0.5682279974554468
2.250750250083364,0.566965837270313
2.264088029343114,0.5686582139480157
2.277425808602871,0.564592524002476
2.290763587862621,0.5647882018629644
2.304101367122371,0.5626488023950643
2.317439146382128,0.562832141157341
2.330776925641878,0.5648411510677191
2.344114704901635,0.5675554948918649
2.357452484161385,0.5664005453899977
2.370790263421142,0.5622768768967829
2.384128042680892,0.5609235003715152
2.3974658219406493,0.562002634114522
2.4108036012003993,0.5681930413460056
2.4241413804601564,0.5669489995742371
2.4374791597199064,0.5658820488649368
2.4508169389796635,0.5668628440483374
2.4641547182394135,0.564896131163977
2.4774924974991634,0.5645117104344267
2.4908302767589205,0.5644616664974983
2.5041680560186705,0.5620558027828872
2.5175058352784276,0.5604615462523383
2.5308436145381776,0.5601154238768016
2.5441813937979347,0.5561756563671548
2.5575191730576847,0.556103120645915
2.570856952317442,0.5555147436440728
2.584194731577192,0.552459119096021
2.597532510836949,0.5494851207438651
2.610870290096699,0.5450291682779038
2.624208069356449,0.5388346688109744
2.637545848616206,0.5387996502834286
2.650883627875956,0.5376393899406248
2.664221407135713,0.5346081627567839
2.677559186395463,0.5362064488747786
2.69089696565522,0.5333354125570728
2.70423474491497,0.5271577195013856
2.7175725241747273,0.526743247143819
2.7309103034344773,0.5261245999108586
2.7442480826942344,0.526649781418821
2.7575858619539844,0.526475501864905
2.7709236412137415,0.5263763509085464
2.7842614204734915,0.528329475062592
2.7975991997332414,0.5289546199940179
2.8109369789929985,0.5278031691307705
2.8242747582527485,0.5259793097910641
2.8376125375125056,0.5250955727254841
2.8509503167722556,0.524711308024837
2.8642880960320127,0.5259313899424618
2.8776258752917627,0.5261018896936179
2.89096365455152,0.5260970165839268
2.90430143381127,0.5274064404641439
2.917639213071027,0.5255507178788162
2.930976992330777,0.5240374629284742
2.944314771590527,0.5252547645381923
2.957652550850284,0.5221419111193332
2.970990330110034,0.51781600464469
2.984328109369791,0.5218934401554078
2.997665888629541,0.5223018834498526
3.011003667889298,0.5188800502100861
3.024341447149048,0.5158713460233849
3.0376792264088053,0.5160468436719241
3.0510170056685553,0.5144010748341477
3.0643547849283124,0.5125038049979375
3.0776925641880624,0.5106463953826161
3.0910303434478195,0.5062631036280052
3.1043681227075695,0.5068010302717841
3.1177059019673194,0.5087946396822964
3.1310436812270765,0.5095361789382321
3.1443814604868265,0.5115142315180149
3.1577192397465836,0.5114051779175006
3.1710570190063336,0.5124633506236699
3.1843947982660907,0.5099582423261558
3.1977325775258407,0.5068279580133853
3.211070356785598,0.5078947213099895
3.224408136045348,0.5072359326066364
3.237745915305105,0.5068488564709341
3.251083694564855,0.5064048013338507
3.264421473824605,0.5029548220880987
3.277759253084362,0.4955056284158078
3.291097032344112,0.4929346378967582
3.304434811603869,0.48987966932060456
3.317772590863619,0.4892031061475743
3.331110370123376,0.4863877367950636
3.344448149383126,0.4860436760940867
3.3577859286428833,0.4856724689475209
3.3711237079026333,0.4860289315074263
3.3844614871623904,0.487108752661176
3.3977992664221404,0.48602221537045626
3.4111370456818975,0.4872972457434422
3.4244748249416475,0.48735191320093013
3.4378126042013974,0.48526299533110584
3.4511503834611545,0.48347296738243495
3.4644881627209045,0.4867893082632646
3.4778259419806616,0.4919880807060805
3.4911637212404116,0.4949196883343798
3.5045015005001687,0.4954047908728798
3.5178392797599187,0.4958918926377371
3.531177059019676,0.497115691728817
3.544514838279426,0.4957516628332874
3.557852617539183,0.49784108062536825
3.571190396798933,0.4965877611002877
3.584528176058683,0.49479264104900217
3.59786595531844,0.4917706603975795
3.61120373457819,0.4894913126542167
3.624541513837947,0.483577959700514
3.637879293097697,0.47640513317139327
3.651217072357454,0.47290457889206283
3.664554851617204,0.4658773860941068
3.6778926308769613,0.4621390444373901
3.6912304101367113,0.4587950262788817
3.7045681893964684,0.45579941097107657
3.7179059686562184,0.45504921848991386
3.7312437479159755,0.45751546629164225
3.7445815271757255,0.4583773363795326
3.7579193064354754,0.4595217585838835
3.7712570856952325,0.45976457535882786
3.7845948649549825,0.4614100317034273
3.7979326442147396,0.4643502610666828
3.8112704234744896,0.46646067118626505
3.8246082027342467,0.468900116317825
3.8379459819939967,0.4663237841285644
3.851283761253754,0.4665662259708679
3.864621540513504,0.4649158025767694
3.877959319773261,0.46168683573349656
3.891297099033011,0.4572758357130343
3.904634878292761,0.4583035508099137
3.917972657552518,0.4601886689896669
3.931310436812268,0.4579597401911353
3.944648216072025,0.45606568798841474
3.957985995331775,0.45510972773801617
3.971323774591532,0.4575659792355688
3.984661553851282,0.4546823540939249
3.9979993331110393,0.4532973019144462
4.011337112370789,0.45134452133435166
4.024674891630546,0.45145316874292246
4.038012670890296,0.452658381176882
4.0513504501500535,0.45353240292691155
4.0646882294098035,0.45461981485375763
4.0780260086695534,0.4528653049264021
4.0913637879293105,0.4493634698663348
